digraph Tree {
node [shape=box] ;
0 [label="X[16] <= 0.5\ngini = 0.788\nsamples = 5000\nvalue = [1, 1634, 288, 399, 2, 12, 37, 37, 13, 817, 74, 2\n8, 1294, 1, 130, 74, 1, 2, 2, 5, 2, 30, 59, 4\n58, 14]"] ;
1 [label="X[11] <= 0.5\ngini = 0.787\nsamples = 3616\nvalue = [0, 548, 52, 392, 2, 4, 37, 37, 13, 812, 65, 1\n8, 1276, 1, 130, 62, 1, 2, 2, 4, 2, 30, 59, 4\n58, 14]"] ;
0 -> 1 [labeldistance=2.5, labelangle=45, headlabel="True"] ;
2 [label="X[14] <= 0.5\ngini = 0.785\nsamples = 3350\nvalue = [0, 543, 52, 389, 2, 4, 37, 37, 13, 572, 65, 1\n8, 1267, 1, 125, 59, 1, 2, 2, 4, 2, 30, 59, 4\n57, 14]"] ;
1 -> 2 ;
3 [label="X[13] <= 0.5\ngini = 0.888\nsamples = 752\nvalue = [0, 98, 26, 59, 2, 2, 25, 35, 0, 146, 19, 1, 1\n72, 0, 125, 49, 0, 2, 2, 0, 0, 29, 17, 3, 38\n1]"] ;
2 -> 3 ;
4 [label="X[1] <= 0.5\ngini = 0.841\nsamples = 404\nvalue = [0, 87, 4, 59, 0, 1, 7, 8, 0, 103, 19, 1, 0\n52, 0, 28, 10, 0, 0, 2, 0, 0, 3, 16, 0, 3, 1]"] ;
3 -> 4 ;
5 [label="X[5] <= 0.5\ngini = 0.388\nsamples = 22\nvalue = [0, 0, 0, 2, 0, 0, 0, 1, 0, 1, 0, 0, 0, 1\n0, 17, 0, 0, 0, 0, 0, 0, 0, 0, 0, 0, 0]"] ;
4 -> 5 ;
6 [label="X[7] <= 0.5\ngini = 0.27\nsamples = 20\nvalue = [0, 0, 0, 1, 0, 0, 0, 1, 0, 1, 0, 0, 0, 0\n0, 17, 0, 0, 0, 0, 0, 0, 0, 0, 0, 0, 0]"] ;
5 -> 6 ;
7 [label="X[0] <= 2.5\ngini = 0.194\nsamples = 19\nvalue = [0, 0, 0, 1, 0, 0, 0, 1, 0, 0, 0, 0, 0, 0\n0, 17, 0, 0, 0, 0, 0, 0, 0, 0, 0, 0, 0]"] ;
6 -> 7 ;
8 [label="X[9] <= 0.5\ngini = 0.32\nsamples = 5\nvalue = [0, 0, 0, 1, 0, 0, 0, 0, 0, 0, 0, 0, 0, 0\n0, 4, 0, 0, 0, 0, 0, 0, 0, 0, 0, 0, 0]"] ;
7 -> 8 ;
9 [label="X[2] <= 1.5\ngini = 0.5\nsamples = 2\nvalue = [0, 0, 0, 1, 0, 0, 0, 0, 0, 0, 0, 0, 0, 0\n0, 1, 0, 0, 0, 0, 0, 0, 0, 0, 0, 0, 0]"] ;
8 -> 9 ;
10 [label="gini = 0.0\nsamples = 1\nvalue = [0, 0, 0, 0, 0, 0, 0, 0, 0, 0, 0, 0, 0, 0\n0, 1, 0, 0, 0, 0, 0, 0, 0, 0, 0, 0, 0]"] ;
9 -> 10 ;
11 [label="gini = 0.0\nsamples = 1\nvalue = [0, 0, 0, 1, 0, 0, 0, 0, 0, 0, 0, 0, 0, 0\n0, 0, 0, 0, 0, 0, 0, 0, 0, 0, 0, 0, 0]"] ;
9 -> 11 ;
12 [label="gini = 0.0\nsamples = 3\nvalue = [0, 0, 0, 0, 0, 0, 0, 0, 0, 0, 0, 0, 0, 0\n0, 3, 0, 0, 0, 0, 0, 0, 0, 0, 0, 0, 0]"] ;
8 -> 12 ;
13 [label="X[9] <= 0.5\ngini = 0.133\nsamples = 14\nvalue = [0, 0, 0, 0, 0, 0, 0, 1, 0, 0, 0, 0, 0, 0\n0, 13, 0, 0, 0, 0, 0, 0, 0, 0, 0, 0, 0]"] ;
7 -> 13 ;
14 [label="gini = 0.0\nsamples = 8\nvalue = [0, 0, 0, 0, 0, 0, 0, 0, 0, 0, 0, 0, 0, 0\n0, 8, 0, 0, 0, 0, 0, 0, 0, 0, 0, 0, 0]"] ;
13 -> 14 ;
15 [label="X[0] <= 4.5\ngini = 0.278\nsamples = 6\nvalue = [0, 0, 0, 0, 0, 0, 0, 1, 0, 0, 0, 0, 0, 0\n0, 5, 0, 0, 0, 0, 0, 0, 0, 0, 0, 0, 0]"] ;
13 -> 15 ;
16 [label="X[0] <= 3.5\ngini = 0.444\nsamples = 3\nvalue = [0, 0, 0, 0, 0, 0, 0, 1, 0, 0, 0, 0, 0, 0\n0, 2, 0, 0, 0, 0, 0, 0, 0, 0, 0, 0, 0]"] ;
15 -> 16 ;
17 [label="gini = 0.0\nsamples = 1\nvalue = [0, 0, 0, 0, 0, 0, 0, 0, 0, 0, 0, 0, 0, 0\n0, 1, 0, 0, 0, 0, 0, 0, 0, 0, 0, 0, 0]"] ;
16 -> 17 ;
18 [label="X[2] <= 3.5\ngini = 0.5\nsamples = 2\nvalue = [0, 0, 0, 0, 0, 0, 0, 1, 0, 0, 0, 0, 0, 0\n0, 1, 0, 0, 0, 0, 0, 0, 0, 0, 0, 0, 0]"] ;
16 -> 18 ;
19 [label="gini = 0.0\nsamples = 1\nvalue = [0, 0, 0, 0, 0, 0, 0, 1, 0, 0, 0, 0, 0, 0\n0, 0, 0, 0, 0, 0, 0, 0, 0, 0, 0, 0, 0]"] ;
18 -> 19 ;
20 [label="gini = 0.0\nsamples = 1\nvalue = [0, 0, 0, 0, 0, 0, 0, 0, 0, 0, 0, 0, 0, 0\n0, 1, 0, 0, 0, 0, 0, 0, 0, 0, 0, 0, 0]"] ;
18 -> 20 ;
21 [label="gini = 0.0\nsamples = 3\nvalue = [0, 0, 0, 0, 0, 0, 0, 0, 0, 0, 0, 0, 0, 0\n0, 3, 0, 0, 0, 0, 0, 0, 0, 0, 0, 0, 0]"] ;
15 -> 21 ;
22 [label="gini = 0.0\nsamples = 1\nvalue = [0, 0, 0, 0, 0, 0, 0, 0, 0, 1, 0, 0, 0, 0\n0, 0, 0, 0, 0, 0, 0, 0, 0, 0, 0, 0, 0]"] ;
6 -> 22 ;
23 [label="gini = 0.5\nsamples = 2\nvalue = [0, 0, 0, 1, 0, 0, 0, 0, 0, 0, 0, 0, 0, 1\n0, 0, 0, 0, 0, 0, 0, 0, 0, 0, 0, 0, 0]"] ;
5 -> 23 ;
24 [label="X[8] <= 0.5\ngini = 0.83\nsamples = 382\nvalue = [0, 87, 4, 57, 0, 1, 7, 7, 0, 102, 19, 1, 0\n51, 0, 11, 10, 0, 0, 2, 0, 0, 3, 16, 0, 3, 1]"] ;
4 -> 24 ;
25 [label="X[4] <= 0.5\ngini = 0.816\nsamples = 348\nvalue = [0, 86, 4, 36, 0, 1, 7, 4, 0, 101, 19, 1, 0\n51, 0, 8, 10, 0, 0, 2, 0, 0, 3, 14, 0, 0, 1]"] ;
24 -> 25 ;
26 [label="X[7] <= 0.5\ngini = 0.792\nsamples = 152\nvalue = [0, 22, 0, 5, 0, 1, 6, 3, 0, 59, 2, 1, 0, 24\n0, 8, 6, 0, 0, 2, 0, 0, 3, 9, 0, 0, 1]"] ;
25 -> 26 ;
27 [label="X[15] <= 0.5\ngini = 0.753\nsamples = 102\nvalue = [0, 17, 0, 5, 0, 1, 5, 2, 0, 46, 2, 1, 0, 6\n0, 1, 5, 0, 0, 2, 0, 0, 2, 6, 0, 0, 1]"] ;
26 -> 27 ;
28 [label="X[0] <= 2.5\ngini = 0.728\nsamples = 96\nvalue = [0, 16, 0, 5, 0, 1, 5, 2, 0, 46, 2, 1, 0, 6\n0, 1, 5, 0, 0, 2, 0, 0, 2, 2, 0, 0, 0]"] ;
27 -> 28 ;
29 [label="X[12] <= 0.5\ngini = 0.649\nsamples = 15\nvalue = [0, 7, 0, 0, 0, 0, 0, 1, 0, 5, 0, 0, 0, 2\n0, 0, 0, 0, 0, 0, 0, 0, 0, 0, 0, 0, 0]"] ;
28 -> 29 ;
30 [label="X[2] <= 1.5\ngini = 0.694\nsamples = 7\nvalue = [0, 3, 0, 0, 0, 0, 0, 1, 0, 1, 0, 0, 0, 2\n0, 0, 0, 0, 0, 0, 0, 0, 0, 0, 0, 0, 0]"] ;
29 -> 30 ;
31 [label="X[9] <= 0.5\ngini = 0.667\nsamples = 3\nvalue = [0, 0, 0, 0, 0, 0, 0, 1, 0, 1, 0, 0, 0, 1\n0, 0, 0, 0, 0, 0, 0, 0, 0, 0, 0, 0, 0]"] ;
30 -> 31 ;
32 [label="X[0] <= 1.5\ngini = 0.5\nsamples = 2\nvalue = [0, 0, 0, 0, 0, 0, 0, 1, 0, 1, 0, 0, 0, 0\n0, 0, 0, 0, 0, 0, 0, 0, 0, 0, 0, 0, 0]"] ;
31 -> 32 ;
33 [label="gini = 0.0\nsamples = 1\nvalue = [0, 0, 0, 0, 0, 0, 0, 1, 0, 0, 0, 0, 0, 0\n0, 0, 0, 0, 0, 0, 0, 0, 0, 0, 0, 0, 0]"] ;
32 -> 33 ;
34 [label="gini = 0.0\nsamples = 1\nvalue = [0, 0, 0, 0, 0, 0, 0, 0, 0, 1, 0, 0, 0, 0\n0, 0, 0, 0, 0, 0, 0, 0, 0, 0, 0, 0, 0]"] ;
32 -> 34 ;
35 [label="gini = 0.0\nsamples = 1\nvalue = [0, 0, 0, 0, 0, 0, 0, 0, 0, 0, 0, 0, 0, 1\n0, 0, 0, 0, 0, 0, 0, 0, 0, 0, 0, 0, 0]"] ;
31 -> 35 ;
36 [label="X[5] <= 0.5\ngini = 0.375\nsamples = 4\nvalue = [0, 3, 0, 0, 0, 0, 0, 0, 0, 0, 0, 0, 0, 1\n0, 0, 0, 0, 0, 0, 0, 0, 0, 0, 0, 0, 0]"] ;
30 -> 36 ;
37 [label="gini = 0.0\nsamples = 2\nvalue = [0, 2, 0, 0, 0, 0, 0, 0, 0, 0, 0, 0, 0, 0\n0, 0, 0, 0, 0, 0, 0, 0, 0, 0, 0, 0, 0]"] ;
36 -> 37 ;
38 [label="gini = 0.5\nsamples = 2\nvalue = [0, 1, 0, 0, 0, 0, 0, 0, 0, 0, 0, 0, 0, 1\n0, 0, 0, 0, 0, 0, 0, 0, 0, 0, 0, 0, 0]"] ;
36 -> 38 ;
39 [label="X[0] <= 1.5\ngini = 0.5\nsamples = 8\nvalue = [0, 4, 0, 0, 0, 0, 0, 0, 0, 4, 0, 0, 0, 0\n0, 0, 0, 0, 0, 0, 0, 0, 0, 0, 0, 0, 0]"] ;
29 -> 39 ;
40 [label="gini = 0.5\nsamples = 2\nvalue = [0, 1, 0, 0, 0, 0, 0, 0, 0, 1, 0, 0, 0, 0\n0, 0, 0, 0, 0, 0, 0, 0, 0, 0, 0, 0, 0]"] ;
39 -> 40 ;
41 [label="X[2] <= 1.5\ngini = 0.5\nsamples = 6\nvalue = [0, 3, 0, 0, 0, 0, 0, 0, 0, 3, 0, 0, 0, 0\n0, 0, 0, 0, 0, 0, 0, 0, 0, 0, 0, 0, 0]"] ;
39 -> 41 ;
42 [label="gini = 0.5\nsamples = 4\nvalue = [0, 2, 0, 0, 0, 0, 0, 0, 0, 2, 0, 0, 0, 0\n0, 0, 0, 0, 0, 0, 0, 0, 0, 0, 0, 0, 0]"] ;
41 -> 42 ;
43 [label="gini = 0.5\nsamples = 2\nvalue = [0, 1, 0, 0, 0, 0, 0, 0, 0, 1, 0, 0, 0, 0\n0, 0, 0, 0, 0, 0, 0, 0, 0, 0, 0, 0, 0]"] ;
41 -> 43 ;
44 [label="X[5] <= 0.5\ngini = 0.715\nsamples = 81\nvalue = [0, 9, 0, 5, 0, 1, 5, 1, 0, 41, 2, 1, 0, 4\n0, 1, 5, 0, 0, 2, 0, 0, 2, 2, 0, 0, 0]"] ;
28 -> 44 ;
45 [label="X[2] <= 3.5\ngini = 0.667\nsamples = 64\nvalue = [0, 9, 0, 3, 0, 1, 5, 1, 0, 35, 0, 0, 0, 3\n0, 1, 1, 0, 0, 2, 0, 0, 2, 1, 0, 0, 0]"] ;
44 -> 45 ;
46 [label="X[0] <= 5.5\ngini = 0.571\nsamples = 47\nvalue = [0, 5, 0, 0, 0, 1, 3, 1, 0, 30, 0, 0, 0, 2\n0, 0, 1, 0, 0, 2, 0, 0, 1, 1, 0, 0, 0]"] ;
45 -> 46 ;
47 [label="X[2] <= 1.5\ngini = 0.535\nsamples = 45\nvalue = [0, 5, 0, 0, 0, 1, 2, 1, 0, 30, 0, 0, 0, 2\n0, 0, 0, 0, 0, 2, 0, 0, 1, 1, 0, 0, 0]"] ;
46 -> 47 ;
48 [label="gini = 0.0\nsamples = 1\nvalue = [0, 0, 0, 0, 0, 0, 0, 0, 0, 0, 0, 0, 0, 1\n0, 0, 0, 0, 0, 0, 0, 0, 0, 0, 0, 0, 0]"] ;
47 -> 48 ;
49 [label="X[0] <= 4.5\ngini = 0.515\nsamples = 44\nvalue = [0, 5, 0, 0, 0, 1, 2, 1, 0, 30, 0, 0, 0, 1\n0, 0, 0, 0, 0, 2, 0, 0, 1, 1, 0, 0, 0]"] ;
47 -> 49 ;
50 [label="X[24] <= 0.5\ngini = 0.599\nsamples = 33\nvalue = [0, 5, 0, 0, 0, 0, 2, 1, 0, 20, 0, 0, 0, 1\n0, 0, 0, 0, 0, 2, 0, 0, 1, 1, 0, 0, 0]"] ;
49 -> 50 ;
51 [label="X[2] <= 2.5\ngini = 0.574\nsamples = 32\nvalue = [0, 5, 0, 0, 0, 0, 2, 1, 0, 20, 0, 0, 0, 1\n0, 0, 0, 0, 0, 2, 0, 0, 0, 1, 0, 0, 0]"] ;
50 -> 51 ;
52 [label="X[12] <= 0.5\ngini = 0.436\nsamples = 15\nvalue = [0, 0, 0, 0, 0, 0, 1, 0, 0, 11, 0, 0, 0, 0\n0, 0, 0, 0, 0, 2, 0, 0, 0, 1, 0, 0, 0]"] ;
51 -> 52 ;
53 [label="gini = 0.0\nsamples = 6\nvalue = [0, 0, 0, 0, 0, 0, 0, 0, 0, 6, 0, 0, 0, 0\n0, 0, 0, 0, 0, 0, 0, 0, 0, 0, 0, 0, 0]"] ;
52 -> 53 ;
54 [label="X[0] <= 3.5\ngini = 0.617\nsamples = 9\nvalue = [0, 0, 0, 0, 0, 0, 1, 0, 0, 5, 0, 0, 0, 0\n0, 0, 0, 0, 0, 2, 0, 0, 0, 1, 0, 0, 0]"] ;
52 -> 54 ;
55 [label="gini = 0.694\nsamples = 7\nvalue = [0, 0, 0, 0, 0, 0, 1, 0, 0, 3, 0, 0, 0, 0\n0, 0, 0, 0, 0, 2, 0, 0, 0, 1, 0, 0, 0]"] ;
54 -> 55 ;
56 [label="gini = 0.0\nsamples = 2\nvalue = [0, 0, 0, 0, 0, 0, 0, 0, 0, 2, 0, 0, 0, 0\n0, 0, 0, 0, 0, 0, 0, 0, 0, 0, 0, 0, 0]"] ;
54 -> 56 ;
57 [label="X[12] <= 0.5\ngini = 0.623\nsamples = 17\nvalue = [0, 5, 0, 0, 0, 0, 1, 1, 0, 9, 0, 0, 0, 1\n0, 0, 0, 0, 0, 0, 0, 0, 0, 0, 0, 0, 0]"] ;
51 -> 57 ;
58 [label="X[3] <= 1.5\ngini = 0.444\nsamples = 3\nvalue = [0, 2, 0, 0, 0, 0, 0, 0, 0, 1, 0, 0, 0, 0\n0, 0, 0, 0, 0, 0, 0, 0, 0, 0, 0, 0, 0]"] ;
57 -> 58 ;
59 [label="gini = 0.0\nsamples = 2\nvalue = [0, 2, 0, 0, 0, 0, 0, 0, 0, 0, 0, 0, 0, 0\n0, 0, 0, 0, 0, 0, 0, 0, 0, 0, 0, 0, 0]"] ;
58 -> 59 ;
60 [label="gini = 0.0\nsamples = 1\nvalue = [0, 0, 0, 0, 0, 0, 0, 0, 0, 1, 0, 0, 0, 0\n0, 0, 0, 0, 0, 0, 0, 0, 0, 0, 0, 0, 0]"] ;
58 -> 60 ;
61 [label="X[0] <= 3.5\ngini = 0.612\nsamples = 14\nvalue = [0, 3, 0, 0, 0, 0, 1, 1, 0, 8, 0, 0, 0, 1\n0, 0, 0, 0, 0, 0, 0, 0, 0, 0, 0, 0, 0]"] ;
57 -> 61 ;
62 [label="gini = 0.58\nsamples = 10\nvalue = [0, 2, 0, 0, 0, 0, 0, 1, 0, 6, 0, 0, 0, 1\n0, 0, 0, 0, 0, 0, 0, 0, 0, 0, 0, 0, 0]"] ;
61 -> 62 ;
63 [label="gini = 0.625\nsamples = 4\nvalue = [0, 1, 0, 0, 0, 0, 1, 0, 0, 2, 0, 0, 0, 0\n0, 0, 0, 0, 0, 0, 0, 0, 0, 0, 0, 0, 0]"] ;
61 -> 63 ;
64 [label="gini = 0.0\nsamples = 1\nvalue = [0, 0, 0, 0, 0, 0, 0, 0, 0, 0, 0, 0, 0, 0\n0, 0, 0, 0, 0, 0, 0, 0, 1, 0, 0, 0, 0]"] ;
50 -> 64 ;
65 [label="X[1] <= 1.5\ngini = 0.165\nsamples = 11\nvalue = [0, 0, 0, 0, 0, 1, 0, 0, 0, 10, 0, 0, 0, 0\n0, 0, 0, 0, 0, 0, 0, 0, 0, 0, 0, 0, 0]"] ;
49 -> 65 ;
66 [label="gini = 0.0\nsamples = 10\nvalue = [0, 0, 0, 0, 0, 0, 0, 0, 0, 10, 0, 0, 0, 0\n0, 0, 0, 0, 0, 0, 0, 0, 0, 0, 0, 0, 0]"] ;
65 -> 66 ;
67 [label="gini = 0.0\nsamples = 1\nvalue = [0, 0, 0, 0, 0, 1, 0, 0, 0, 0, 0, 0, 0, 0\n0, 0, 0, 0, 0, 0, 0, 0, 0, 0, 0, 0, 0]"] ;
65 -> 67 ;
68 [label="X[1] <= 1.5\ngini = 0.5\nsamples = 2\nvalue = [0, 0, 0, 0, 0, 0, 1, 0, 0, 0, 0, 0, 0, 0\n0, 0, 1, 0, 0, 0, 0, 0, 0, 0, 0, 0, 0]"] ;
46 -> 68 ;
69 [label="gini = 0.0\nsamples = 1\nvalue = [0, 0, 0, 0, 0, 0, 1, 0, 0, 0, 0, 0, 0, 0\n0, 0, 0, 0, 0, 0, 0, 0, 0, 0, 0, 0, 0]"] ;
68 -> 69 ;
70 [label="gini = 0.0\nsamples = 1\nvalue = [0, 0, 0, 0, 0, 0, 0, 0, 0, 0, 0, 0, 0, 0\n0, 0, 1, 0, 0, 0, 0, 0, 0, 0, 0, 0, 0]"] ;
68 -> 70 ;
71 [label="X[0] <= 4.5\ngini = 0.803\nsamples = 17\nvalue = [0, 4, 0, 3, 0, 0, 2, 0, 0, 5, 0, 0, 0, 1\n0, 1, 0, 0, 0, 0, 0, 0, 1, 0, 0, 0, 0]"] ;
45 -> 71 ;
72 [label="X[1] <= 1.5\ngini = 0.691\nsamples = 9\nvalue = [0, 4, 0, 2, 0, 0, 0, 0, 0, 2, 0, 0, 0, 1\n0, 0, 0, 0, 0, 0, 0, 0, 0, 0, 0, 0, 0]"] ;
71 -> 72 ;
73 [label="X[9] <= 0.5\ngini = 0.612\nsamples = 7\nvalue = [0, 4, 0, 1, 0, 0, 0, 0, 0, 1, 0, 0, 0, 1\n0, 0, 0, 0, 0, 0, 0, 0, 0, 0, 0, 0, 0]"] ;
72 -> 73 ;
74 [label="gini = 0.5\nsamples = 2\nvalue = [0, 1, 0, 0, 0, 0, 0, 0, 0, 1, 0, 0, 0, 0\n0, 0, 0, 0, 0, 0, 0, 0, 0, 0, 0, 0, 0]"] ;
73 -> 74 ;
75 [label="gini = 0.56\nsamples = 5\nvalue = [0, 3, 0, 1, 0, 0, 0, 0, 0, 0, 0, 0, 0, 1\n0, 0, 0, 0, 0, 0, 0, 0, 0, 0, 0, 0, 0]"] ;
73 -> 75 ;
76 [label="X[9] <= 0.5\ngini = 0.5\nsamples = 2\nvalue = [0, 0, 0, 1, 0, 0, 0, 0, 0, 1, 0, 0, 0, 0\n0, 0, 0, 0, 0, 0, 0, 0, 0, 0, 0, 0, 0]"] ;
72 -> 76 ;
77 [label="gini = 0.0\nsamples = 1\nvalue = [0, 0, 0, 1, 0, 0, 0, 0, 0, 0, 0, 0, 0, 0\n0, 0, 0, 0, 0, 0, 0, 0, 0, 0, 0, 0, 0]"] ;
76 -> 77 ;
78 [label="gini = 0.0\nsamples = 1\nvalue = [0, 0, 0, 0, 0, 0, 0, 0, 0, 1, 0, 0, 0, 0\n0, 0, 0, 0, 0, 0, 0, 0, 0, 0, 0, 0, 0]"] ;
76 -> 78 ;
79 [label="X[0] <= 5.5\ngini = 0.75\nsamples = 8\nvalue = [0, 0, 0, 1, 0, 0, 2, 0, 0, 3, 0, 0, 0, 0\n0, 1, 0, 0, 0, 0, 0, 0, 1, 0, 0, 0, 0]"] ;
71 -> 79 ;
80 [label="gini = 0.0\nsamples = 2\nvalue = [0, 0, 0, 0, 0, 0, 2, 0, 0, 0, 0, 0, 0, 0\n0, 0, 0, 0, 0, 0, 0, 0, 0, 0, 0, 0, 0]"] ;
79 -> 80 ;
81 [label="X[0] <= 9.0\ngini = 0.667\nsamples = 6\nvalue = [0, 0, 0, 1, 0, 0, 0, 0, 0, 3, 0, 0, 0, 0\n0, 1, 0, 0, 0, 0, 0, 0, 1, 0, 0, 0, 0]"] ;
79 -> 81 ;
82 [label="X[2] <= 4.5\ngini = 0.375\nsamples = 4\nvalue = [0, 0, 0, 1, 0, 0, 0, 0, 0, 3, 0, 0, 0, 0\n0, 0, 0, 0, 0, 0, 0, 0, 0, 0, 0, 0, 0]"] ;
81 -> 82 ;
83 [label="gini = 0.0\nsamples = 2\nvalue = [0, 0, 0, 0, 0, 0, 0, 0, 0, 2, 0, 0, 0, 0\n0, 0, 0, 0, 0, 0, 0, 0, 0, 0, 0, 0, 0]"] ;
82 -> 83 ;
84 [label="X[12] <= 0.5\ngini = 0.5\nsamples = 2\nvalue = [0, 0, 0, 1, 0, 0, 0, 0, 0, 1, 0, 0, 0, 0\n0, 0, 0, 0, 0, 0, 0, 0, 0, 0, 0, 0, 0]"] ;
82 -> 84 ;
85 [label="gini = 0.0\nsamples = 1\nvalue = [0, 0, 0, 1, 0, 0, 0, 0, 0, 0, 0, 0, 0, 0\n0, 0, 0, 0, 0, 0, 0, 0, 0, 0, 0, 0, 0]"] ;
84 -> 85 ;
86 [label="gini = 0.0\nsamples = 1\nvalue = [0, 0, 0, 0, 0, 0, 0, 0, 0, 1, 0, 0, 0, 0\n0, 0, 0, 0, 0, 0, 0, 0, 0, 0, 0, 0, 0]"] ;
84 -> 86 ;
87 [label="X[9] <= 0.5\ngini = 0.5\nsamples = 2\nvalue = [0, 0, 0, 0, 0, 0, 0, 0, 0, 0, 0, 0, 0, 0\n0, 1, 0, 0, 0, 0, 0, 0, 1, 0, 0, 0, 0]"] ;
81 -> 87 ;
88 [label="gini = 0.0\nsamples = 1\nvalue = [0, 0, 0, 0, 0, 0, 0, 0, 0, 0, 0, 0, 0, 0\n0, 1, 0, 0, 0, 0, 0, 0, 0, 0, 0, 0, 0]"] ;
87 -> 88 ;
89 [label="gini = 0.0\nsamples = 1\nvalue = [0, 0, 0, 0, 0, 0, 0, 0, 0, 0, 0, 0, 0, 0\n0, 0, 0, 0, 0, 0, 0, 0, 1, 0, 0, 0, 0]"] ;
87 -> 89 ;
90 [label="X[3] <= 1.5\ngini = 0.782\nsamples = 17\nvalue = [0, 0, 0, 2, 0, 0, 0, 0, 0, 6, 2, 1, 0, 1\n0, 0, 4, 0, 0, 0, 0, 0, 0, 1, 0, 0, 0]"] ;
44 -> 90 ;
91 [label="X[2] <= 3.5\ngini = 0.809\nsamples = 15\nvalue = [0, 0, 0, 2, 0, 0, 0, 0, 0, 4, 2, 1, 0, 1\n0, 0, 4, 0, 0, 0, 0, 0, 0, 1, 0, 0, 0]"] ;
90 -> 91 ;
92 [label="X[2] <= 1.5\ngini = 0.777\nsamples = 11\nvalue = [0, 0, 0, 2, 0, 0, 0, 0, 0, 2, 1, 1, 0, 0\n0, 0, 4, 0, 0, 0, 0, 0, 0, 1, 0, 0, 0]"] ;
91 -> 92 ;
93 [label="gini = 0.0\nsamples = 1\nvalue = [0, 0, 0, 0, 0, 0, 0, 0, 0, 0, 1, 0, 0, 0\n0, 0, 0, 0, 0, 0, 0, 0, 0, 0, 0, 0, 0]"] ;
92 -> 93 ;
94 [label="X[0] <= 3.5\ngini = 0.74\nsamples = 10\nvalue = [0, 0, 0, 2, 0, 0, 0, 0, 0, 2, 0, 1, 0, 0\n0, 0, 4, 0, 0, 0, 0, 0, 0, 1, 0, 0, 0]"] ;
92 -> 94 ;
95 [label="X[24] <= 0.5\ngini = 0.611\nsamples = 6\nvalue = [0, 0, 0, 1, 0, 0, 0, 0, 0, 2, 0, 0, 0, 0\n0, 0, 3, 0, 0, 0, 0, 0, 0, 0, 0, 0, 0]"] ;
94 -> 95 ;
96 [label="X[2] <= 2.5\ngini = 0.64\nsamples = 5\nvalue = [0, 0, 0, 1, 0, 0, 0, 0, 0, 2, 0, 0, 0, 0\n0, 0, 2, 0, 0, 0, 0, 0, 0, 0, 0, 0, 0]"] ;
95 -> 96 ;
97 [label="gini = 0.625\nsamples = 4\nvalue = [0, 0, 0, 1, 0, 0, 0, 0, 0, 1, 0, 0, 0, 0\n0, 0, 2, 0, 0, 0, 0, 0, 0, 0, 0, 0, 0]"] ;
96 -> 97 ;
98 [label="gini = 0.0\nsamples = 1\nvalue = [0, 0, 0, 0, 0, 0, 0, 0, 0, 1, 0, 0, 0, 0\n0, 0, 0, 0, 0, 0, 0, 0, 0, 0, 0, 0, 0]"] ;
96 -> 98 ;
99 [label="gini = 0.0\nsamples = 1\nvalue = [0, 0, 0, 0, 0, 0, 0, 0, 0, 0, 0, 0, 0, 0\n0, 0, 1, 0, 0, 0, 0, 0, 0, 0, 0, 0, 0]"] ;
95 -> 99 ;
100 [label="X[0] <= 4.5\ngini = 0.75\nsamples = 4\nvalue = [0, 0, 0, 1, 0, 0, 0, 0, 0, 0, 0, 1, 0, 0\n0, 0, 1, 0, 0, 0, 0, 0, 0, 1, 0, 0, 0]"] ;
94 -> 100 ;
101 [label="X[22] <= 0.5\ngini = 0.5\nsamples = 2\nvalue = [0, 0, 0, 0, 0, 0, 0, 0, 0, 0, 0, 1, 0, 0\n0, 0, 0, 0, 0, 0, 0, 0, 0, 1, 0, 0, 0]"] ;
100 -> 101 ;
102 [label="gini = 0.0\nsamples = 1\nvalue = [0, 0, 0, 0, 0, 0, 0, 0, 0, 0, 0, 1, 0, 0\n0, 0, 0, 0, 0, 0, 0, 0, 0, 0, 0, 0, 0]"] ;
101 -> 102 ;
103 [label="gini = 0.0\nsamples = 1\nvalue = [0, 0, 0, 0, 0, 0, 0, 0, 0, 0, 0, 0, 0, 0\n0, 0, 0, 0, 0, 0, 0, 0, 0, 1, 0, 0, 0]"] ;
101 -> 103 ;
104 [label="gini = 0.5\nsamples = 2\nvalue = [0, 0, 0, 1, 0, 0, 0, 0, 0, 0, 0, 0, 0, 0\n0, 0, 1, 0, 0, 0, 0, 0, 0, 0, 0, 0, 0]"] ;
100 -> 104 ;
105 [label="X[24] <= 0.5\ngini = 0.625\nsamples = 4\nvalue = [0, 0, 0, 0, 0, 0, 0, 0, 0, 2, 1, 0, 0, 1\n0, 0, 0, 0, 0, 0, 0, 0, 0, 0, 0, 0, 0]"] ;
91 -> 105 ;
106 [label="gini = 0.667\nsamples = 3\nvalue = [0, 0, 0, 0, 0, 0, 0, 0, 0, 1, 1, 0, 0, 1\n0, 0, 0, 0, 0, 0, 0, 0, 0, 0, 0, 0, 0]"] ;
105 -> 106 ;
107 [label="gini = 0.0\nsamples = 1\nvalue = [0, 0, 0, 0, 0, 0, 0, 0, 0, 1, 0, 0, 0, 0\n0, 0, 0, 0, 0, 0, 0, 0, 0, 0, 0, 0, 0]"] ;
105 -> 107 ;
108 [label="gini = 0.0\nsamples = 2\nvalue = [0, 0, 0, 0, 0, 0, 0, 0, 0, 2, 0, 0, 0, 0\n0, 0, 0, 0, 0, 0, 0, 0, 0, 0, 0, 0, 0]"] ;
90 -> 108 ;
109 [label="X[0] <= 5.5\ngini = 0.5\nsamples = 6\nvalue = [0, 1, 0, 0, 0, 0, 0, 0, 0, 0, 0, 0, 0, 0\n0, 0, 0, 0, 0, 0, 0, 0, 0, 4, 0, 0, 1]"] ;
27 -> 109 ;
110 [label="X[24] <= 0.5\ngini = 0.32\nsamples = 5\nvalue = [0, 0, 0, 0, 0, 0, 0, 0, 0, 0, 0, 0, 0, 0\n0, 0, 0, 0, 0, 0, 0, 0, 0, 4, 0, 0, 1]"] ;
109 -> 110 ;
111 [label="gini = 0.0\nsamples = 4\nvalue = [0, 0, 0, 0, 0, 0, 0, 0, 0, 0, 0, 0, 0, 0\n0, 0, 0, 0, 0, 0, 0, 0, 0, 4, 0, 0, 0]"] ;
110 -> 111 ;
112 [label="gini = 0.0\nsamples = 1\nvalue = [0, 0, 0, 0, 0, 0, 0, 0, 0, 0, 0, 0, 0, 0\n0, 0, 0, 0, 0, 0, 0, 0, 0, 0, 0, 0, 1]"] ;
110 -> 112 ;
113 [label="gini = 0.0\nsamples = 1\nvalue = [0, 1, 0, 0, 0, 0, 0, 0, 0, 0, 0, 0, 0, 0\n0, 0, 0, 0, 0, 0, 0, 0, 0, 0, 0, 0, 0]"] ;
109 -> 113 ;
114 [label="X[22] <= 0.5\ngini = 0.768\nsamples = 50\nvalue = [0, 5, 0, 0, 0, 0, 1, 1, 0, 13, 0, 0, 0, 18\n0, 7, 1, 0, 0, 0, 0, 0, 1, 3, 0, 0, 0]"] ;
26 -> 114 ;
115 [label="X[2] <= 3.5\ngini = 0.748\nsamples = 45\nvalue = [0, 5, 0, 0, 0, 0, 1, 1, 0, 13, 0, 0, 0, 17\n0, 4, 0, 0, 0, 0, 0, 0, 1, 3, 0, 0, 0]"] ;
114 -> 115 ;
116 [label="X[0] <= 3.5\ngini = 0.718\nsamples = 36\nvalue = [0, 3, 0, 0, 0, 0, 1, 1, 0, 9, 0, 0, 0, 16\n0, 4, 0, 0, 0, 0, 0, 0, 1, 1, 0, 0, 0]"] ;
115 -> 116 ;
117 [label="X[2] <= 2.5\ngini = 0.747\nsamples = 28\nvalue = [0, 3, 0, 0, 0, 0, 1, 1, 0, 5, 0, 0, 0, 12\n0, 4, 0, 0, 0, 0, 0, 0, 1, 1, 0, 0, 0]"] ;
116 -> 117 ;
118 [label="X[0] <= 1.5\ngini = 0.726\nsamples = 21\nvalue = [0, 2, 0, 0, 0, 0, 1, 1, 0, 3, 0, 0, 0, 10\n0, 2, 0, 0, 0, 0, 0, 0, 1, 1, 0, 0, 0]"] ;
117 -> 118 ;
119 [label="gini = 0.781\nsamples = 8\nvalue = [0, 1, 0, 0, 0, 0, 1, 1, 0, 1, 0, 0, 0, 3\n0, 1, 0, 0, 0, 0, 0, 0, 0, 0, 0, 0, 0]"] ;
118 -> 119 ;
120 [label="X[0] <= 2.5\ngini = 0.663\nsamples = 13\nvalue = [0, 1, 0, 0, 0, 0, 0, 0, 0, 2, 0, 0, 0, 7\n0, 1, 0, 0, 0, 0, 0, 0, 1, 1, 0, 0, 0]"] ;
118 -> 120 ;
121 [label="X[2] <= 1.5\ngini = 0.688\nsamples = 8\nvalue = [0, 1, 0, 0, 0, 0, 0, 0, 0, 1, 0, 0, 0, 4\n0, 0, 0, 0, 0, 0, 0, 0, 1, 1, 0, 0, 0]"] ;
120 -> 121 ;
122 [label="gini = 0.444\nsamples = 3\nvalue = [0, 0, 0, 0, 0, 0, 0, 0, 0, 1, 0, 0, 0, 2\n0, 0, 0, 0, 0, 0, 0, 0, 0, 0, 0, 0, 0]"] ;
121 -> 122 ;
123 [label="gini = 0.72\nsamples = 5\nvalue = [0, 1, 0, 0, 0, 0, 0, 0, 0, 0, 0, 0, 0, 2\n0, 0, 0, 0, 0, 0, 0, 0, 1, 1, 0, 0, 0]"] ;
121 -> 123 ;
124 [label="gini = 0.56\nsamples = 5\nvalue = [0, 0, 0, 0, 0, 0, 0, 0, 0, 1, 0, 0, 0, 3\n0, 1, 0, 0, 0, 0, 0, 0, 0, 0, 0, 0, 0]"] ;
120 -> 124 ;
125 [label="gini = 0.735\nsamples = 7\nvalue = [0, 1, 0, 0, 0, 0, 0, 0, 0, 2, 0, 0, 0, 2\n0, 2, 0, 0, 0, 0, 0, 0, 0, 0, 0, 0, 0]"] ;
117 -> 125 ;
126 [label="X[0] <= 4.5\ngini = 0.5\nsamples = 8\nvalue = [0, 0, 0, 0, 0, 0, 0, 0, 0, 4, 0, 0, 0, 4\n0, 0, 0, 0, 0, 0, 0, 0, 0, 0, 0, 0, 0]"] ;
116 -> 126 ;
127 [label="X[1] <= 2.0\ngini = 0.444\nsamples = 6\nvalue = [0, 0, 0, 0, 0, 0, 0, 0, 0, 4, 0, 0, 0, 2\n0, 0, 0, 0, 0, 0, 0, 0, 0, 0, 0, 0, 0]"] ;
126 -> 127 ;
128 [label="X[2] <= 2.5\ngini = 0.32\nsamples = 5\nvalue = [0, 0, 0, 0, 0, 0, 0, 0, 0, 4, 0, 0, 0, 1\n0, 0, 0, 0, 0, 0, 0, 0, 0, 0, 0, 0, 0]"] ;
127 -> 128 ;
129 [label="gini = 0.5\nsamples = 2\nvalue = [0, 0, 0, 0, 0, 0, 0, 0, 0, 1, 0, 0, 0, 1\n0, 0, 0, 0, 0, 0, 0, 0, 0, 0, 0, 0, 0]"] ;
128 -> 129 ;
130 [label="gini = 0.0\nsamples = 3\nvalue = [0, 0, 0, 0, 0, 0, 0, 0, 0, 3, 0, 0, 0, 0\n0, 0, 0, 0, 0, 0, 0, 0, 0, 0, 0, 0, 0]"] ;
128 -> 130 ;
131 [label="gini = 0.0\nsamples = 1\nvalue = [0, 0, 0, 0, 0, 0, 0, 0, 0, 0, 0, 0, 0, 1\n0, 0, 0, 0, 0, 0, 0, 0, 0, 0, 0, 0, 0]"] ;
127 -> 131 ;
132 [label="gini = 0.0\nsamples = 2\nvalue = [0, 0, 0, 0, 0, 0, 0, 0, 0, 0, 0, 0, 0, 2\n0, 0, 0, 0, 0, 0, 0, 0, 0, 0, 0, 0, 0]"] ;
126 -> 132 ;
133 [label="X[3] <= 2.0\ngini = 0.691\nsamples = 9\nvalue = [0, 2, 0, 0, 0, 0, 0, 0, 0, 4, 0, 0, 0, 1\n0, 0, 0, 0, 0, 0, 0, 0, 0, 2, 0, 0, 0]"] ;
115 -> 133 ;
134 [label="X[0] <= 4.5\ngini = 0.656\nsamples = 8\nvalue = [0, 2, 0, 0, 0, 0, 0, 0, 0, 4, 0, 0, 0, 1\n0, 0, 0, 0, 0, 0, 0, 0, 0, 1, 0, 0, 0]"] ;
133 -> 134 ;
135 [label="gini = 0.0\nsamples = 1\nvalue = [0, 0, 0, 0, 0, 0, 0, 0, 0, 0, 0, 0, 0, 0\n0, 0, 0, 0, 0, 0, 0, 0, 0, 1, 0, 0, 0]"] ;
134 -> 135 ;
136 [label="X[0] <= 5.5\ngini = 0.571\nsamples = 7\nvalue = [0, 2, 0, 0, 0, 0, 0, 0, 0, 4, 0, 0, 0, 1\n0, 0, 0, 0, 0, 0, 0, 0, 0, 0, 0, 0, 0]"] ;
134 -> 136 ;
137 [label="gini = 0.5\nsamples = 4\nvalue = [0, 2, 0, 0, 0, 0, 0, 0, 0, 2, 0, 0, 0, 0\n0, 0, 0, 0, 0, 0, 0, 0, 0, 0, 0, 0, 0]"] ;
136 -> 137 ;
138 [label="X[0] <= 7.5\ngini = 0.444\nsamples = 3\nvalue = [0, 0, 0, 0, 0, 0, 0, 0, 0, 2, 0, 0, 0, 1\n0, 0, 0, 0, 0, 0, 0, 0, 0, 0, 0, 0, 0]"] ;
136 -> 138 ;
139 [label="X[2] <= 4.5\ngini = 0.5\nsamples = 2\nvalue = [0, 0, 0, 0, 0, 0, 0, 0, 0, 1, 0, 0, 0, 1\n0, 0, 0, 0, 0, 0, 0, 0, 0, 0, 0, 0, 0]"] ;
138 -> 139 ;
140 [label="gini = 0.0\nsamples = 1\nvalue = [0, 0, 0, 0, 0, 0, 0, 0, 0, 1, 0, 0, 0, 0\n0, 0, 0, 0, 0, 0, 0, 0, 0, 0, 0, 0, 0]"] ;
139 -> 140 ;
141 [label="gini = 0.0\nsamples = 1\nvalue = [0, 0, 0, 0, 0, 0, 0, 0, 0, 0, 0, 0, 0, 1\n0, 0, 0, 0, 0, 0, 0, 0, 0, 0, 0, 0, 0]"] ;
139 -> 141 ;
142 [label="gini = 0.0\nsamples = 1\nvalue = [0, 0, 0, 0, 0, 0, 0, 0, 0, 1, 0, 0, 0, 0\n0, 0, 0, 0, 0, 0, 0, 0, 0, 0, 0, 0, 0]"] ;
138 -> 142 ;
143 [label="gini = 0.0\nsamples = 1\nvalue = [0, 0, 0, 0, 0, 0, 0, 0, 0, 0, 0, 0, 0, 0\n0, 0, 0, 0, 0, 0, 0, 0, 0, 1, 0, 0, 0]"] ;
133 -> 143 ;
144 [label="X[0] <= 7.0\ngini = 0.56\nsamples = 5\nvalue = [0, 0, 0, 0, 0, 0, 0, 0, 0, 0, 0, 0, 0, 1\n0, 3, 1, 0, 0, 0, 0, 0, 0, 0, 0, 0, 0]"] ;
114 -> 144 ;
145 [label="X[0] <= 3.5\ngini = 0.375\nsamples = 4\nvalue = [0, 0, 0, 0, 0, 0, 0, 0, 0, 0, 0, 0, 0, 0\n0, 3, 1, 0, 0, 0, 0, 0, 0, 0, 0, 0, 0]"] ;
144 -> 145 ;
146 [label="gini = 0.0\nsamples = 2\nvalue = [0, 0, 0, 0, 0, 0, 0, 0, 0, 0, 0, 0, 0, 0\n0, 2, 0, 0, 0, 0, 0, 0, 0, 0, 0, 0, 0]"] ;
145 -> 146 ;
147 [label="X[2] <= 3.5\ngini = 0.5\nsamples = 2\nvalue = [0, 0, 0, 0, 0, 0, 0, 0, 0, 0, 0, 0, 0, 0\n0, 1, 1, 0, 0, 0, 0, 0, 0, 0, 0, 0, 0]"] ;
145 -> 147 ;
148 [label="gini = 0.0\nsamples = 1\nvalue = [0, 0, 0, 0, 0, 0, 0, 0, 0, 0, 0, 0, 0, 0\n0, 0, 1, 0, 0, 0, 0, 0, 0, 0, 0, 0, 0]"] ;
147 -> 148 ;
149 [label="gini = 0.0\nsamples = 1\nvalue = [0, 0, 0, 0, 0, 0, 0, 0, 0, 0, 0, 0, 0, 0\n0, 1, 0, 0, 0, 0, 0, 0, 0, 0, 0, 0, 0]"] ;
147 -> 149 ;
150 [label="gini = 0.0\nsamples = 1\nvalue = [0, 0, 0, 0, 0, 0, 0, 0, 0, 0, 0, 0, 0, 1\n0, 0, 0, 0, 0, 0, 0, 0, 0, 0, 0, 0, 0]"] ;
144 -> 150 ;
151 [label="X[22] <= 0.5\ngini = 0.794\nsamples = 196\nvalue = [0, 64, 4, 31, 0, 0, 1, 1, 0, 42, 17, 0, 0\n27, 0, 0, 4, 0, 0, 0, 0, 0, 0, 5, 0, 0, 0]"] ;
25 -> 151 ;
152 [label="X[0] <= 4.5\ngini = 0.801\nsamples = 170\nvalue = [0, 49, 4, 27, 0, 0, 1, 1, 0, 42, 14, 0, 0\n25, 0, 0, 4, 0, 0, 0, 0, 0, 0, 3, 0, 0, 0]"] ;
151 -> 152 ;
153 [label="X[2] <= 3.5\ngini = 0.781\nsamples = 129\nvalue = [0, 38, 3, 24, 0, 0, 1, 1, 0, 37, 8, 0, 0, 13\n0, 0, 3, 0, 0, 0, 0, 0, 0, 1, 0, 0, 0]"] ;
152 -> 153 ;
154 [label="X[0] <= 1.5\ngini = 0.783\nsamples = 124\nvalue = [0, 34, 3, 24, 0, 0, 1, 1, 0, 37, 8, 0, 0, 12\n0, 0, 3, 0, 0, 0, 0, 0, 0, 1, 0, 0, 0]"] ;
153 -> 154 ;
155 [label="gini = 0.772\nsamples = 26\nvalue = [0, 7, 3, 8, 0, 0, 0, 0, 0, 4, 0, 0, 0, 4\n0, 0, 0, 0, 0, 0, 0, 0, 0, 0, 0, 0, 0]"] ;
154 -> 155 ;
156 [label="X[1] <= 1.5\ngini = 0.769\nsamples = 98\nvalue = [0, 27, 0, 16, 0, 0, 1, 1, 0, 33, 8, 0, 0, 8\n0, 0, 3, 0, 0, 0, 0, 0, 0, 1, 0, 0, 0]"] ;
154 -> 156 ;
157 [label="X[0] <= 3.5\ngini = 0.768\nsamples = 89\nvalue = [0, 26, 0, 16, 0, 0, 1, 0, 0, 28, 8, 0, 0, 7\n0, 0, 2, 0, 0, 0, 0, 0, 0, 1, 0, 0, 0]"] ;
156 -> 157 ;
158 [label="X[2] <= 2.5\ngini = 0.748\nsamples = 68\nvalue = [0, 20, 0, 12, 0, 0, 1, 0, 0, 24, 2, 0, 0, 6\n0, 0, 2, 0, 0, 0, 0, 0, 0, 1, 0, 0, 0]"] ;
157 -> 158 ;
159 [label="X[0] <= 2.5\ngini = 0.767\nsamples = 47\nvalue = [0, 15, 0, 7, 0, 0, 1, 0, 0, 14, 2, 0, 0, 6\n0, 0, 2, 0, 0, 0, 0, 0, 0, 0, 0, 0, 0]"] ;
158 -> 159 ;
160 [label="X[2] <= 1.5\ngini = 0.748\nsamples = 37\nvalue = [0, 13, 0, 5, 0, 0, 0, 0, 0, 11, 1, 0, 0, 5\n0, 0, 2, 0, 0, 0, 0, 0, 0, 0, 0, 0, 0]"] ;
159 -> 160 ;
161 [label="gini = 0.5\nsamples = 2\nvalue = [0, 0, 0, 1, 0, 0, 0, 0, 0, 1, 0, 0, 0, 0\n0, 0, 0, 0, 0, 0, 0, 0, 0, 0, 0, 0, 0]"] ;
160 -> 161 ;
162 [label="gini = 0.743\nsamples = 35\nvalue = [0, 13, 0, 4, 0, 0, 0, 0, 0, 10, 1, 0, 0, 5\n0, 0, 2, 0, 0, 0, 0, 0, 0, 0, 0, 0, 0]"] ;
160 -> 162 ;
163 [label="X[2] <= 1.5\ngini = 0.8\nsamples = 10\nvalue = [0, 2, 0, 2, 0, 0, 1, 0, 0, 3, 1, 0, 0, 1\n0, 0, 0, 0, 0, 0, 0, 0, 0, 0, 0, 0, 0]"] ;
159 -> 163 ;
164 [label="gini = 0.0\nsamples = 1\nvalue = [0, 1, 0, 0, 0, 0, 0, 0, 0, 0, 0, 0, 0, 0\n0, 0, 0, 0, 0, 0, 0, 0, 0, 0, 0, 0, 0]"] ;
163 -> 164 ;
165 [label="gini = 0.79\nsamples = 9\nvalue = [0, 1, 0, 2, 0, 0, 1, 0, 0, 3, 1, 0, 0, 1\n0, 0, 0, 0, 0, 0, 0, 0, 0, 0, 0, 0, 0]"] ;
163 -> 165 ;
166 [label="gini = 0.658\nsamples = 21\nvalue = [0, 5, 0, 5, 0, 0, 0, 0, 0, 10, 0, 0, 0, 0\n0, 0, 0, 0, 0, 0, 0, 0, 0, 1, 0, 0, 0]"] ;
158 -> 166 ;
167 [label="X[2] <= 2.5\ngini = 0.762\nsamples = 21\nvalue = [0, 6, 0, 4, 0, 0, 0, 0, 0, 4, 6, 0, 0, 1\n0, 0, 0, 0, 0, 0, 0, 0, 0, 0, 0, 0, 0]"] ;
157 -> 167 ;
168 [label="gini = 0.5\nsamples = 2\nvalue = [0, 0, 0, 1, 0, 0, 0, 0, 0, 1, 0, 0, 0, 0\n0, 0, 0, 0, 0, 0, 0, 0, 0, 0, 0, 0, 0]"] ;
167 -> 168 ;
169 [label="gini = 0.748\nsamples = 19\nvalue = [0, 6, 0, 3, 0, 0, 0, 0, 0, 3, 6, 0, 0, 1\n0, 0, 0, 0, 0, 0, 0, 0, 0, 0, 0, 0, 0]"] ;
167 -> 169 ;
170 [label="X[0] <= 2.5\ngini = 0.642\nsamples = 9\nvalue = [0, 1, 0, 0, 0, 0, 0, 1, 0, 5, 0, 0, 0, 1\n0, 0, 1, 0, 0, 0, 0, 0, 0, 0, 0, 0, 0]"] ;
156 -> 170 ;
171 [label="X[3] <= 2.5\ngini = 0.667\nsamples = 3\nvalue = [0, 1, 0, 0, 0, 0, 0, 0, 0, 1, 0, 0, 0, 1\n0, 0, 0, 0, 0, 0, 0, 0, 0, 0, 0, 0, 0]"] ;
170 -> 171 ;
172 [label="gini = 0.5\nsamples = 2\nvalue = [0, 1, 0, 0, 0, 0, 0, 0, 0, 0, 0, 0, 0, 1\n0, 0, 0, 0, 0, 0, 0, 0, 0, 0, 0, 0, 0]"] ;
171 -> 172 ;
173 [label="gini = 0.0\nsamples = 1\nvalue = [0, 0, 0, 0, 0, 0, 0, 0, 0, 1, 0, 0, 0, 0\n0, 0, 0, 0, 0, 0, 0, 0, 0, 0, 0, 0, 0]"] ;
171 -> 173 ;
174 [label="X[3] <= 2.5\ngini = 0.5\nsamples = 6\nvalue = [0, 0, 0, 0, 0, 0, 0, 1, 0, 4, 0, 0, 0, 0\n0, 0, 1, 0, 0, 0, 0, 0, 0, 0, 0, 0, 0]"] ;
170 -> 174 ;
175 [label="gini = 0.0\nsamples = 3\nvalue = [0, 0, 0, 0, 0, 0, 0, 0, 0, 3, 0, 0, 0, 0\n0, 0, 0, 0, 0, 0, 0, 0, 0, 0, 0, 0, 0]"] ;
174 -> 175 ;
176 [label="X[2] <= 2.5\ngini = 0.667\nsamples = 3\nvalue = [0, 0, 0, 0, 0, 0, 0, 1, 0, 1, 0, 0, 0, 0\n0, 0, 1, 0, 0, 0, 0, 0, 0, 0, 0, 0, 0]"] ;
174 -> 176 ;
177 [label="gini = 0.0\nsamples = 1\nvalue = [0, 0, 0, 0, 0, 0, 0, 0, 0, 0, 0, 0, 0, 0\n0, 0, 1, 0, 0, 0, 0, 0, 0, 0, 0, 0, 0]"] ;
176 -> 177 ;
178 [label="gini = 0.5\nsamples = 2\nvalue = [0, 0, 0, 0, 0, 0, 0, 1, 0, 1, 0, 0, 0, 0\n0, 0, 0, 0, 0, 0, 0, 0, 0, 0, 0, 0, 0]"] ;
176 -> 178 ;
179 [label="gini = 0.32\nsamples = 5\nvalue = [0, 4, 0, 0, 0, 0, 0, 0, 0, 0, 0, 0, 0, 1\n0, 0, 0, 0, 0, 0, 0, 0, 0, 0, 0, 0, 0]"] ;
153 -> 179 ;
180 [label="X[2] <= 5.5\ngini = 0.797\nsamples = 41\nvalue = [0, 11, 1, 3, 0, 0, 0, 0, 0, 5, 6, 0, 0, 12\n0, 0, 1, 0, 0, 0, 0, 0, 0, 2, 0, 0, 0]"] ;
152 -> 180 ;
181 [label="X[0] <= 6.5\ngini = 0.776\nsamples = 38\nvalue = [0, 11, 1, 2, 0, 0, 0, 0, 0, 5, 5, 0, 0, 12\n0, 0, 0, 0, 0, 0, 0, 0, 0, 2, 0, 0, 0]"] ;
180 -> 181 ;
182 [label="X[3] <= 1.5\ngini = 0.791\nsamples = 32\nvalue = [0, 10, 1, 2, 0, 0, 0, 0, 0, 4, 5, 0, 0, 8\n0, 0, 0, 0, 0, 0, 0, 0, 0, 2, 0, 0, 0]"] ;
181 -> 182 ;
183 [label="X[2] <= 2.5\ngini = 0.785\nsamples = 31\nvalue = [0, 10, 1, 2, 0, 0, 0, 0, 0, 3, 5, 0, 0, 8\n0, 0, 0, 0, 0, 0, 0, 0, 0, 2, 0, 0, 0]"] ;
182 -> 183 ;
184 [label="gini = 0.0\nsamples = 1\nvalue = [0, 0, 0, 0, 0, 0, 0, 0, 0, 0, 1, 0, 0, 0\n0, 0, 0, 0, 0, 0, 0, 0, 0, 0, 0, 0, 0]"] ;
183 -> 184 ;
185 [label="X[2] <= 4.5\ngini = 0.78\nsamples = 30\nvalue = [0, 10, 1, 2, 0, 0, 0, 0, 0, 3, 4, 0, 0, 8\n0, 0, 0, 0, 0, 0, 0, 0, 0, 2, 0, 0, 0]"] ;
183 -> 185 ;
186 [label="X[2] <= 3.5\ngini = 0.772\nsamples = 26\nvalue = [0, 8, 1, 1, 0, 0, 0, 0, 0, 2, 4, 0, 0, 8\n0, 0, 0, 0, 0, 0, 0, 0, 0, 2, 0, 0, 0]"] ;
185 -> 186 ;
187 [label="X[0] <= 5.5\ngini = 0.571\nsamples = 7\nvalue = [0, 4, 0, 0, 0, 0, 0, 0, 0, 0, 1, 0, 0, 2\n0, 0, 0, 0, 0, 0, 0, 0, 0, 0, 0, 0, 0]"] ;
186 -> 187 ;
188 [label="gini = 0.32\nsamples = 5\nvalue = [0, 4, 0, 0, 0, 0, 0, 0, 0, 0, 0, 0, 0, 1\n0, 0, 0, 0, 0, 0, 0, 0, 0, 0, 0, 0, 0]"] ;
187 -> 188 ;
189 [label="gini = 0.5\nsamples = 2\nvalue = [0, 0, 0, 0, 0, 0, 0, 0, 0, 0, 1, 0, 0, 1\n0, 0, 0, 0, 0, 0, 0, 0, 0, 0, 0, 0, 0]"] ;
187 -> 189 ;
190 [label="X[0] <= 5.5\ngini = 0.803\nsamples = 19\nvalue = [0, 4, 1, 1, 0, 0, 0, 0, 0, 2, 3, 0, 0, 6\n0, 0, 0, 0, 0, 0, 0, 0, 0, 2, 0, 0, 0]"] ;
186 -> 190 ;
191 [label="gini = 0.778\nsamples = 12\nvalue = [0, 0, 1, 1, 0, 0, 0, 0, 0, 1, 3, 0, 0, 4\n0, 0, 0, 0, 0, 0, 0, 0, 0, 2, 0, 0, 0]"] ;
190 -> 191 ;
192 [label="gini = 0.571\nsamples = 7\nvalue = [0, 4, 0, 0, 0, 0, 0, 0, 0, 1, 0, 0, 0, 2\n0, 0, 0, 0, 0, 0, 0, 0, 0, 0, 0, 0, 0]"] ;
190 -> 192 ;
193 [label="X[0] <= 5.5\ngini = 0.625\nsamples = 4\nvalue = [0, 2, 0, 1, 0, 0, 0, 0, 0, 1, 0, 0, 0, 0\n0, 0, 0, 0, 0, 0, 0, 0, 0, 0, 0, 0, 0]"] ;
185 -> 193 ;
194 [label="gini = 0.0\nsamples = 1\nvalue = [0, 1, 0, 0, 0, 0, 0, 0, 0, 0, 0, 0, 0, 0\n0, 0, 0, 0, 0, 0, 0, 0, 0, 0, 0, 0, 0]"] ;
193 -> 194 ;
195 [label="gini = 0.667\nsamples = 3\nvalue = [0, 1, 0, 1, 0, 0, 0, 0, 0, 1, 0, 0, 0, 0\n0, 0, 0, 0, 0, 0, 0, 0, 0, 0, 0, 0, 0]"] ;
193 -> 195 ;
196 [label="gini = 0.0\nsamples = 1\nvalue = [0, 0, 0, 0, 0, 0, 0, 0, 0, 1, 0, 0, 0, 0\n0, 0, 0, 0, 0, 0, 0, 0, 0, 0, 0, 0, 0]"] ;
182 -> 196 ;
197 [label="X[0] <= 8.5\ngini = 0.5\nsamples = 6\nvalue = [0, 1, 0, 0, 0, 0, 0, 0, 0, 1, 0, 0, 0, 4\n0, 0, 0, 0, 0, 0, 0, 0, 0, 0, 0, 0, 0]"] ;
181 -> 197 ;
198 [label="gini = 0.0\nsamples = 4\nvalue = [0, 0, 0, 0, 0, 0, 0, 0, 0, 0, 0, 0, 0, 4\n0, 0, 0, 0, 0, 0, 0, 0, 0, 0, 0, 0, 0]"] ;
197 -> 198 ;
199 [label="X[2] <= 4.5\ngini = 0.5\nsamples = 2\nvalue = [0, 1, 0, 0, 0, 0, 0, 0, 0, 1, 0, 0, 0, 0\n0, 0, 0, 0, 0, 0, 0, 0, 0, 0, 0, 0, 0]"] ;
197 -> 199 ;
200 [label="gini = 0.0\nsamples = 1\nvalue = [0, 0, 0, 0, 0, 0, 0, 0, 0, 1, 0, 0, 0, 0\n0, 0, 0, 0, 0, 0, 0, 0, 0, 0, 0, 0, 0]"] ;
199 -> 200 ;
201 [label="gini = 0.0\nsamples = 1\nvalue = [0, 1, 0, 0, 0, 0, 0, 0, 0, 0, 0, 0, 0, 0\n0, 0, 0, 0, 0, 0, 0, 0, 0, 0, 0, 0, 0]"] ;
199 -> 201 ;
202 [label="X[0] <= 7.5\ngini = 0.667\nsamples = 3\nvalue = [0, 0, 0, 1, 0, 0, 0, 0, 0, 0, 1, 0, 0, 0\n0, 0, 1, 0, 0, 0, 0, 0, 0, 0, 0, 0, 0]"] ;
180 -> 202 ;
203 [label="gini = 0.0\nsamples = 1\nvalue = [0, 0, 0, 0, 0, 0, 0, 0, 0, 0, 1, 0, 0, 0\n0, 0, 0, 0, 0, 0, 0, 0, 0, 0, 0, 0, 0]"] ;
202 -> 203 ;
204 [label="X[0] <= 9.0\ngini = 0.5\nsamples = 2\nvalue = [0, 0, 0, 1, 0, 0, 0, 0, 0, 0, 0, 0, 0, 0\n0, 0, 1, 0, 0, 0, 0, 0, 0, 0, 0, 0, 0]"] ;
202 -> 204 ;
205 [label="gini = 0.0\nsamples = 1\nvalue = [0, 0, 0, 1, 0, 0, 0, 0, 0, 0, 0, 0, 0, 0\n0, 0, 0, 0, 0, 0, 0, 0, 0, 0, 0, 0, 0]"] ;
204 -> 205 ;
206 [label="gini = 0.0\nsamples = 1\nvalue = [0, 0, 0, 0, 0, 0, 0, 0, 0, 0, 0, 0, 0, 0\n0, 0, 1, 0, 0, 0, 0, 0, 0, 0, 0, 0, 0]"] ;
204 -> 206 ;
207 [label="X[2] <= 2.5\ngini = 0.618\nsamples = 26\nvalue = [0, 15, 0, 4, 0, 0, 0, 0, 0, 0, 3, 0, 0, 2\n0, 0, 0, 0, 0, 0, 0, 0, 0, 2, 0, 0, 0]"] ;
151 -> 207 ;
208 [label="X[0] <= 2.5\ngini = 0.444\nsamples = 3\nvalue = [0, 1, 0, 0, 0, 0, 0, 0, 0, 0, 0, 0, 0, 2\n0, 0, 0, 0, 0, 0, 0, 0, 0, 0, 0, 0, 0]"] ;
207 -> 208 ;
209 [label="gini = 0.0\nsamples = 1\nvalue = [0, 1, 0, 0, 0, 0, 0, 0, 0, 0, 0, 0, 0, 0\n0, 0, 0, 0, 0, 0, 0, 0, 0, 0, 0, 0, 0]"] ;
208 -> 209 ;
210 [label="gini = 0.0\nsamples = 2\nvalue = [0, 0, 0, 0, 0, 0, 0, 0, 0, 0, 0, 0, 0, 2\n0, 0, 0, 0, 0, 0, 0, 0, 0, 0, 0, 0, 0]"] ;
208 -> 210 ;
211 [label="X[0] <= 10.5\ngini = 0.575\nsamples = 23\nvalue = [0, 14, 0, 4, 0, 0, 0, 0, 0, 0, 3, 0, 0, 0\n0, 0, 0, 0, 0, 0, 0, 0, 0, 2, 0, 0, 0]"] ;
207 -> 211 ;
212 [label="X[2] <= 4.5\ngini = 0.55\nsamples = 22\nvalue = [0, 14, 0, 3, 0, 0, 0, 0, 0, 0, 3, 0, 0, 0\n0, 0, 0, 0, 0, 0, 0, 0, 0, 2, 0, 0, 0]"] ;
211 -> 212 ;
213 [label="X[0] <= 3.5\ngini = 0.623\nsamples = 18\nvalue = [0, 10, 0, 3, 0, 0, 0, 0, 0, 0, 3, 0, 0, 0\n0, 0, 0, 0, 0, 0, 0, 0, 0, 2, 0, 0, 0]"] ;
212 -> 213 ;
214 [label="gini = 0.0\nsamples = 3\nvalue = [0, 3, 0, 0, 0, 0, 0, 0, 0, 0, 0, 0, 0, 0\n0, 0, 0, 0, 0, 0, 0, 0, 0, 0, 0, 0, 0]"] ;
213 -> 214 ;
215 [label="X[2] <= 3.5\ngini = 0.684\nsamples = 15\nvalue = [0, 7, 0, 3, 0, 0, 0, 0, 0, 0, 3, 0, 0, 0\n0, 0, 0, 0, 0, 0, 0, 0, 0, 2, 0, 0, 0]"] ;
213 -> 215 ;
216 [label="X[0] <= 4.5\ngini = 0.64\nsamples = 5\nvalue = [0, 1, 0, 2, 0, 0, 0, 0, 0, 0, 2, 0, 0, 0\n0, 0, 0, 0, 0, 0, 0, 0, 0, 0, 0, 0, 0]"] ;
215 -> 216 ;
217 [label="gini = 0.625\nsamples = 4\nvalue = [0, 1, 0, 2, 0, 0, 0, 0, 0, 0, 1, 0, 0, 0\n0, 0, 0, 0, 0, 0, 0, 0, 0, 0, 0, 0, 0]"] ;
216 -> 217 ;
218 [label="gini = 0.0\nsamples = 1\nvalue = [0, 0, 0, 0, 0, 0, 0, 0, 0, 0, 1, 0, 0, 0\n0, 0, 0, 0, 0, 0, 0, 0, 0, 0, 0, 0, 0]"] ;
216 -> 218 ;
219 [label="X[0] <= 5.5\ngini = 0.58\nsamples = 10\nvalue = [0, 6, 0, 1, 0, 0, 0, 0, 0, 0, 1, 0, 0, 0\n0, 0, 0, 0, 0, 0, 0, 0, 0, 2, 0, 0, 0]"] ;
215 -> 219 ;
220 [label="X[0] <= 4.5\ngini = 0.611\nsamples = 6\nvalue = [0, 3, 0, 0, 0, 0, 0, 0, 0, 0, 1, 0, 0, 0\n0, 0, 0, 0, 0, 0, 0, 0, 0, 2, 0, 0, 0]"] ;
219 -> 220 ;
221 [label="gini = 0.444\nsamples = 3\nvalue = [0, 2, 0, 0, 0, 0, 0, 0, 0, 0, 1, 0, 0, 0\n0, 0, 0, 0, 0, 0, 0, 0, 0, 0, 0, 0, 0]"] ;
220 -> 221 ;
222 [label="gini = 0.444\nsamples = 3\nvalue = [0, 1, 0, 0, 0, 0, 0, 0, 0, 0, 0, 0, 0, 0\n0, 0, 0, 0, 0, 0, 0, 0, 0, 2, 0, 0, 0]"] ;
220 -> 222 ;
223 [label="X[0] <= 6.5\ngini = 0.375\nsamples = 4\nvalue = [0, 3, 0, 1, 0, 0, 0, 0, 0, 0, 0, 0, 0, 0\n0, 0, 0, 0, 0, 0, 0, 0, 0, 0, 0, 0, 0]"] ;
219 -> 223 ;
224 [label="gini = 0.5\nsamples = 2\nvalue = [0, 1, 0, 1, 0, 0, 0, 0, 0, 0, 0, 0, 0, 0\n0, 0, 0, 0, 0, 0, 0, 0, 0, 0, 0, 0, 0]"] ;
223 -> 224 ;
225 [label="gini = 0.0\nsamples = 2\nvalue = [0, 2, 0, 0, 0, 0, 0, 0, 0, 0, 0, 0, 0, 0\n0, 0, 0, 0, 0, 0, 0, 0, 0, 0, 0, 0, 0]"] ;
223 -> 225 ;
226 [label="gini = 0.0\nsamples = 4\nvalue = [0, 4, 0, 0, 0, 0, 0, 0, 0, 0, 0, 0, 0, 0\n0, 0, 0, 0, 0, 0, 0, 0, 0, 0, 0, 0, 0]"] ;
212 -> 226 ;
227 [label="gini = 0.0\nsamples = 1\nvalue = [0, 0, 0, 1, 0, 0, 0, 0, 0, 0, 0, 0, 0, 0\n0, 0, 0, 0, 0, 0, 0, 0, 0, 0, 0, 0, 0]"] ;
211 -> 227 ;
228 [label="X[2] <= 4.5\ngini = 0.59\nsamples = 34\nvalue = [0, 1, 0, 21, 0, 0, 0, 3, 0, 1, 0, 0, 0, 0\n0, 3, 0, 0, 0, 0, 0, 0, 0, 2, 0, 3, 0]"] ;
24 -> 228 ;
229 [label="X[2] <= 1.5\ngini = 0.516\nsamples = 31\nvalue = [0, 1, 0, 21, 0, 0, 0, 2, 0, 1, 0, 0, 0, 0\n0, 3, 0, 0, 0, 0, 0, 0, 0, 0, 0, 3, 0]"] ;
228 -> 229 ;
230 [label="X[0] <= 1.5\ngini = 0.48\nsamples = 5\nvalue = [0, 0, 0, 2, 0, 0, 0, 0, 0, 0, 0, 0, 0, 0\n0, 0, 0, 0, 0, 0, 0, 0, 0, 0, 0, 3, 0]"] ;
229 -> 230 ;
231 [label="gini = 0.5\nsamples = 4\nvalue = [0, 0, 0, 2, 0, 0, 0, 0, 0, 0, 0, 0, 0, 0\n0, 0, 0, 0, 0, 0, 0, 0, 0, 0, 0, 2, 0]"] ;
230 -> 231 ;
232 [label="gini = 0.0\nsamples = 1\nvalue = [0, 0, 0, 0, 0, 0, 0, 0, 0, 0, 0, 0, 0, 0\n0, 0, 0, 0, 0, 0, 0, 0, 0, 0, 0, 1, 0]"] ;
230 -> 232 ;
233 [label="X[0] <= 3.5\ngini = 0.444\nsamples = 26\nvalue = [0, 1, 0, 19, 0, 0, 0, 2, 0, 1, 0, 0, 0, 0\n0, 3, 0, 0, 0, 0, 0, 0, 0, 0, 0, 0, 0]"] ;
229 -> 233 ;
234 [label="X[2] <= 2.5\ngini = 0.499\nsamples = 19\nvalue = [0, 1, 0, 13, 0, 0, 0, 1, 0, 1, 0, 0, 0, 0\n0, 3, 0, 0, 0, 0, 0, 0, 0, 0, 0, 0, 0]"] ;
233 -> 234 ;
235 [label="X[0] <= 2.5\ngini = 0.34\nsamples = 10\nvalue = [0, 1, 0, 8, 0, 0, 0, 0, 0, 0, 0, 0, 0, 0\n0, 1, 0, 0, 0, 0, 0, 0, 0, 0, 0, 0, 0]"] ;
234 -> 235 ;
236 [label="gini = 0.449\nsamples = 7\nvalue = [0, 1, 0, 5, 0, 0, 0, 0, 0, 0, 0, 0, 0, 0\n0, 1, 0, 0, 0, 0, 0, 0, 0, 0, 0, 0, 0]"] ;
235 -> 236 ;
237 [label="gini = 0.0\nsamples = 3\nvalue = [0, 0, 0, 3, 0, 0, 0, 0, 0, 0, 0, 0, 0, 0\n0, 0, 0, 0, 0, 0, 0, 0, 0, 0, 0, 0, 0]"] ;
235 -> 237 ;
238 [label="X[22] <= 0.5\ngini = 0.617\nsamples = 9\nvalue = [0, 0, 0, 5, 0, 0, 0, 1, 0, 1, 0, 0, 0, 0\n0, 2, 0, 0, 0, 0, 0, 0, 0, 0, 0, 0, 0]"] ;
234 -> 238 ;
239 [label="gini = 0.612\nsamples = 7\nvalue = [0, 0, 0, 4, 0, 0, 0, 1, 0, 1, 0, 0, 0, 0\n0, 1, 0, 0, 0, 0, 0, 0, 0, 0, 0, 0, 0]"] ;
238 -> 239 ;
240 [label="gini = 0.5\nsamples = 2\nvalue = [0, 0, 0, 1, 0, 0, 0, 0, 0, 0, 0, 0, 0, 0\n0, 1, 0, 0, 0, 0, 0, 0, 0, 0, 0, 0, 0]"] ;
238 -> 240 ;
241 [label="X[0] <= 4.5\ngini = 0.245\nsamples = 7\nvalue = [0, 0, 0, 6, 0, 0, 0, 1, 0, 0, 0, 0, 0, 0\n0, 0, 0, 0, 0, 0, 0, 0, 0, 0, 0, 0, 0]"] ;
233 -> 241 ;
242 [label="gini = 0.375\nsamples = 4\nvalue = [0, 0, 0, 3, 0, 0, 0, 1, 0, 0, 0, 0, 0, 0\n0, 0, 0, 0, 0, 0, 0, 0, 0, 0, 0, 0, 0]"] ;
241 -> 242 ;
243 [label="gini = 0.0\nsamples = 3\nvalue = [0, 0, 0, 3, 0, 0, 0, 0, 0, 0, 0, 0, 0, 0\n0, 0, 0, 0, 0, 0, 0, 0, 0, 0, 0, 0, 0]"] ;
241 -> 243 ;
244 [label="X[22] <= 0.5\ngini = 0.444\nsamples = 3\nvalue = [0, 0, 0, 0, 0, 0, 0, 1, 0, 0, 0, 0, 0, 0\n0, 0, 0, 0, 0, 0, 0, 0, 0, 2, 0, 0, 0]"] ;
228 -> 244 ;
245 [label="gini = 0.5\nsamples = 2\nvalue = [0, 0, 0, 0, 0, 0, 0, 1, 0, 0, 0, 0, 0, 0\n0, 0, 0, 0, 0, 0, 0, 0, 0, 1, 0, 0, 0]"] ;
244 -> 245 ;
246 [label="gini = 0.0\nsamples = 1\nvalue = [0, 0, 0, 0, 0, 0, 0, 0, 0, 0, 0, 0, 0, 0\n0, 0, 0, 0, 0, 0, 0, 0, 0, 1, 0, 0, 0]"] ;
244 -> 246 ;
247 [label="X[0] <= 1.5\ngini = 0.862\nsamples = 348\nvalue = [0, 11, 22, 0, 2, 1, 18, 27, 0, 43, 0, 0, 1\n20, 0, 97, 39, 0, 2, 0, 0, 0, 26, 1, 3, 35\n0]"] ;
3 -> 247 ;
248 [label="X[3] <= 2.5\ngini = 0.855\nsamples = 64\nvalue = [0, 3, 5, 0, 0, 0, 2, 9, 0, 4, 0, 0, 0, 7\n0, 14, 4, 0, 1, 0, 0, 0, 0, 1, 0, 14, 0]"] ;
247 -> 248 ;
249 [label="X[1] <= 0.5\ngini = 0.854\nsamples = 62\nvalue = [0, 3, 5, 0, 0, 0, 2, 9, 0, 4, 0, 0, 0, 7\n0, 14, 3, 0, 1, 0, 0, 0, 0, 1, 0, 13, 0]"] ;
248 -> 249 ;
250 [label="gini = 0.0\nsamples = 1\nvalue = [0, 0, 0, 0, 0, 0, 0, 0, 0, 0, 0, 0, 0, 0\n0, 1, 0, 0, 0, 0, 0, 0, 0, 0, 0, 0, 0]"] ;
249 -> 250 ;
251 [label="X[1] <= 1.5\ngini = 0.857\nsamples = 61\nvalue = [0, 3, 5, 0, 0, 0, 2, 9, 0, 4, 0, 0, 0, 7\n0, 13, 3, 0, 1, 0, 0, 0, 0, 1, 0, 13, 0]"] ;
249 -> 251 ;
252 [label="gini = 0.859\nsamples = 60\nvalue = [0, 3, 5, 0, 0, 0, 2, 9, 0, 4, 0, 0, 0, 7\n0, 12, 3, 0, 1, 0, 0, 0, 0, 1, 0, 13, 0]"] ;
251 -> 252 ;
253 [label="gini = 0.0\nsamples = 1\nvalue = [0, 0, 0, 0, 0, 0, 0, 0, 0, 0, 0, 0, 0, 0\n0, 1, 0, 0, 0, 0, 0, 0, 0, 0, 0, 0, 0]"] ;
251 -> 253 ;
254 [label="gini = 0.5\nsamples = 2\nvalue = [0, 0, 0, 0, 0, 0, 0, 0, 0, 0, 0, 0, 0, 0\n0, 0, 1, 0, 0, 0, 0, 0, 0, 0, 0, 1, 0]"] ;
248 -> 254 ;
255 [label="X[2] <= 1.5\ngini = 0.853\nsamples = 284\nvalue = [0, 8, 17, 0, 2, 1, 16, 18, 0, 39, 0, 0, 1\n13, 0, 83, 35, 0, 1, 0, 0, 0, 26, 0, 3, 21\n0]"] ;
247 -> 255 ;
256 [label="X[0] <= 2.5\ngini = 0.744\nsamples = 21\nvalue = [0, 0, 4, 0, 0, 0, 1, 0, 0, 4, 0, 0, 0, 4\n0, 8, 0, 0, 0, 0, 0, 0, 0, 0, 0, 0, 0]"] ;
255 -> 256 ;
257 [label="X[1] <= 1.5\ngini = 0.667\nsamples = 15\nvalue = [0, 0, 3, 0, 0, 0, 0, 0, 0, 1, 0, 0, 0, 4\n0, 7, 0, 0, 0, 0, 0, 0, 0, 0, 0, 0, 0]"] ;
256 -> 257 ;
258 [label="gini = 0.684\nsamples = 14\nvalue = [0, 0, 3, 0, 0, 0, 0, 0, 0, 1, 0, 0, 0, 4\n0, 6, 0, 0, 0, 0, 0, 0, 0, 0, 0, 0, 0]"] ;
257 -> 258 ;
259 [label="gini = 0.0\nsamples = 1\nvalue = [0, 0, 0, 0, 0, 0, 0, 0, 0, 0, 0, 0, 0, 0\n0, 1, 0, 0, 0, 0, 0, 0, 0, 0, 0, 0, 0]"] ;
257 -> 259 ;
260 [label="X[0] <= 3.5\ngini = 0.667\nsamples = 6\nvalue = [0, 0, 1, 0, 0, 0, 1, 0, 0, 3, 0, 0, 0, 0\n0, 1, 0, 0, 0, 0, 0, 0, 0, 0, 0, 0, 0]"] ;
256 -> 260 ;
261 [label="gini = 0.56\nsamples = 5\nvalue = [0, 0, 1, 0, 0, 0, 1, 0, 0, 3, 0, 0, 0, 0\n0, 0, 0, 0, 0, 0, 0, 0, 0, 0, 0, 0, 0]"] ;
260 -> 261 ;
262 [label="gini = 0.0\nsamples = 1\nvalue = [0, 0, 0, 0, 0, 0, 0, 0, 0, 0, 0, 0, 0, 0\n0, 1, 0, 0, 0, 0, 0, 0, 0, 0, 0, 0, 0]"] ;
260 -> 262 ;
263 [label="X[1] <= 1.5\ngini = 0.854\nsamples = 263\nvalue = [0, 8, 13, 0, 2, 1, 15, 18, 0, 35, 0, 0, 1, 9\n0, 75, 35, 0, 1, 0, 0, 0, 26, 0, 3, 21, 0]"] ;
255 -> 263 ;
264 [label="X[0] <= 6.5\ngini = 0.847\nsamples = 243\nvalue = [0, 6, 9, 0, 2, 1, 15, 17, 0, 30, 0, 0, 0, 8\n0, 73, 31, 0, 1, 0, 0, 0, 26, 0, 3, 21, 0]"] ;
263 -> 264 ;
265 [label="X[22] <= 0.5\ngini = 0.842\nsamples = 221\nvalue = [0, 6, 8, 0, 2, 1, 10, 17, 0, 25, 0, 0, 0, 7\n0, 69, 27, 0, 1, 0, 0, 0, 25, 0, 3, 20, 0]"] ;
264 -> 265 ;
266 [label="X[0] <= 3.5\ngini = 0.831\nsamples = 204\nvalue = [0, 5, 5, 0, 2, 1, 7, 17, 0, 24, 0, 0, 0, 5\n0, 66, 26, 0, 0, 0, 0, 0, 25, 0, 2, 19, 0]"] ;
265 -> 266 ;
267 [label="X[2] <= 2.5\ngini = 0.836\nsamples = 118\nvalue = [0, 4, 2, 0, 1, 0, 5, 9, 0, 14, 0, 0, 0, 2\n0, 35, 14, 0, 0, 0, 0, 0, 21, 0, 1, 10, 0]"] ;
266 -> 267 ;
268 [label="X[0] <= 2.5\ngini = 0.822\nsamples = 87\nvalue = [0, 4, 0, 0, 1, 0, 4, 6, 0, 11, 0, 0, 0, 0\n0, 28, 11, 0, 0, 0, 0, 0, 13, 0, 0, 9, 0]"] ;
267 -> 268 ;
269 [label="gini = 0.821\nsamples = 61\nvalue = [0, 4, 0, 0, 0, 0, 3, 5, 0, 5, 0, 0, 0, 0\n0, 19, 6, 0, 0, 0, 0, 0, 12, 0, 0, 7, 0]"] ;
268 -> 269 ;
270 [label="X[3] <= 0.5\ngini = 0.778\nsamples = 26\nvalue = [0, 0, 0, 0, 1, 0, 1, 1, 0, 6, 0, 0, 0, 0\n0, 9, 5, 0, 0, 0, 0, 0, 1, 0, 0, 2, 0]"] ;
268 -> 270 ;
271 [label="gini = 0.0\nsamples = 1\nvalue = [0, 0, 0, 0, 0, 0, 0, 0, 0, 0, 0, 0, 0, 0\n0, 1, 0, 0, 0, 0, 0, 0, 0, 0, 0, 0, 0]"] ;
270 -> 271 ;
272 [label="gini = 0.787\nsamples = 25\nvalue = [0, 0, 0, 0, 1, 0, 1, 1, 0, 6, 0, 0, 0, 0\n0, 8, 5, 0, 0, 0, 0, 0, 1, 0, 0, 2, 0]"] ;
270 -> 272 ;
273 [label="gini = 0.843\nsamples = 31\nvalue = [0, 0, 2, 0, 0, 0, 1, 3, 0, 3, 0, 0, 0, 2\n0, 7, 3, 0, 0, 0, 0, 0, 8, 0, 1, 1, 0]"] ;
267 -> 273 ;
274 [label="X[2] <= 5.5\ngini = 0.812\nsamples = 86\nvalue = [0, 1, 3, 0, 1, 1, 2, 8, 0, 10, 0, 0, 0, 3\n0, 31, 12, 0, 0, 0, 0, 0, 4, 0, 1, 9, 0]"] ;
266 -> 274 ;
275 [label="X[2] <= 4.5\ngini = 0.82\nsamples = 84\nvalue = [0, 1, 3, 0, 1, 1, 2, 8, 0, 10, 0, 0, 0, 3\n0, 29, 12, 0, 0, 0, 0, 0, 4, 0, 1, 9, 0]"] ;
274 -> 275 ;
276 [label="X[2] <= 3.5\ngini = 0.829\nsamples = 75\nvalue = [0, 1, 3, 0, 1, 1, 2, 7, 0, 10, 0, 0, 0, 3\n0, 25, 9, 0, 0, 0, 0, 0, 4, 0, 1, 8, 0]"] ;
275 -> 276 ;
277 [label="X[0] <= 5.5\ngini = 0.817\nsamples = 44\nvalue = [0, 1, 1, 0, 1, 0, 1, 2, 0, 7, 0, 0, 0, 3\n0, 15, 6, 0, 0, 0, 0, 0, 1, 0, 1, 5, 0]"] ;
276 -> 277 ;
278 [label="X[0] <= 4.5\ngini = 0.816\nsamples = 41\nvalue = [0, 1, 1, 0, 1, 0, 1, 1, 0, 6, 0, 0, 0, 3\n0, 14, 6, 0, 0, 0, 0, 0, 1, 0, 1, 5, 0]"] ;
277 -> 278 ;
279 [label="X[2] <= 2.5\ngini = 0.828\nsamples = 33\nvalue = [0, 1, 1, 0, 1, 0, 1, 1, 0, 4, 0, 0, 0, 3\n0, 11, 5, 0, 0, 0, 0, 0, 1, 0, 1, 3, 0]"] ;
278 -> 279 ;
280 [label="gini = 0.778\nsamples = 6\nvalue = [0, 0, 0, 0, 0, 0, 0, 0, 0, 1, 0, 0, 0, 1\n0, 2, 0, 0, 0, 0, 0, 0, 0, 0, 1, 1, 0]"] ;
279 -> 280 ;
281 [label="gini = 0.823\nsamples = 27\nvalue = [0, 1, 1, 0, 1, 0, 1, 1, 0, 3, 0, 0, 0, 2\n0, 9, 5, 0, 0, 0, 0, 0, 1, 0, 0, 2, 0]"] ;
279 -> 281 ;
282 [label="X[2] <= 2.5\ngini = 0.719\nsamples = 8\nvalue = [0, 0, 0, 0, 0, 0, 0, 0, 0, 2, 0, 0, 0, 0\n0, 3, 1, 0, 0, 0, 0, 0, 0, 0, 0, 2, 0]"] ;
278 -> 282 ;
283 [label="gini = 0.0\nsamples = 1\nvalue = [0, 0, 0, 0, 0, 0, 0, 0, 0, 0, 0, 0, 0, 0\n0, 0, 1, 0, 0, 0, 0, 0, 0, 0, 0, 0, 0]"] ;
282 -> 283 ;
284 [label="gini = 0.653\nsamples = 7\nvalue = [0, 0, 0, 0, 0, 0, 0, 0, 0, 2, 0, 0, 0, 0\n0, 3, 0, 0, 0, 0, 0, 0, 0, 0, 0, 2, 0]"] ;
282 -> 284 ;
285 [label="gini = 0.667\nsamples = 3\nvalue = [0, 0, 0, 0, 0, 0, 0, 1, 0, 1, 0, 0, 0, 0\n0, 1, 0, 0, 0, 0, 0, 0, 0, 0, 0, 0, 0]"] ;
277 -> 285 ;
286 [label="X[0] <= 4.5\ngini = 0.826\nsamples = 31\nvalue = [0, 0, 2, 0, 0, 1, 1, 5, 0, 3, 0, 0, 0, 0\n0, 10, 3, 0, 0, 0, 0, 0, 3, 0, 0, 3, 0]"] ;
276 -> 286 ;
287 [label="gini = 0.72\nsamples = 10\nvalue = [0, 0, 0, 0, 0, 1, 0, 3, 0, 0, 0, 0, 0, 0\n0, 4, 0, 0, 0, 0, 0, 0, 1, 0, 0, 1, 0]"] ;
286 -> 287 ;
288 [label="X[0] <= 5.5\ngini = 0.839\nsamples = 21\nvalue = [0, 0, 2, 0, 0, 0, 1, 2, 0, 3, 0, 0, 0, 0\n0, 6, 3, 0, 0, 0, 0, 0, 2, 0, 0, 2, 0]"] ;
286 -> 288 ;
289 [label="gini = 0.837\nsamples = 14\nvalue = [0, 0, 1, 0, 0, 0, 1, 2, 0, 2, 0, 0, 0, 0\n0, 4, 2, 0, 0, 0, 0, 0, 1, 0, 0, 1, 0]"] ;
288 -> 289 ;
290 [label="gini = 0.816\nsamples = 7\nvalue = [0, 0, 1, 0, 0, 0, 0, 0, 0, 1, 0, 0, 0, 0\n0, 2, 1, 0, 0, 0, 0, 0, 1, 0, 0, 1, 0]"] ;
288 -> 290 ;
291 [label="X[0] <= 5.5\ngini = 0.667\nsamples = 9\nvalue = [0, 0, 0, 0, 0, 0, 0, 1, 0, 0, 0, 0, 0, 0\n0, 4, 3, 0, 0, 0, 0, 0, 0, 0, 0, 1, 0]"] ;
275 -> 291 ;
292 [label="gini = 0.56\nsamples = 5\nvalue = [0, 0, 0, 0, 0, 0, 0, 1, 0, 0, 0, 0, 0, 0\n0, 1, 3, 0, 0, 0, 0, 0, 0, 0, 0, 0, 0]"] ;
291 -> 292 ;
293 [label="gini = 0.375\nsamples = 4\nvalue = [0, 0, 0, 0, 0, 0, 0, 0, 0, 0, 0, 0, 0, 0\n0, 3, 0, 0, 0, 0, 0, 0, 0, 0, 0, 1, 0]"] ;
291 -> 293 ;
294 [label="gini = 0.0\nsamples = 2\nvalue = [0, 0, 0, 0, 0, 0, 0, 0, 0, 0, 0, 0, 0, 0\n0, 2, 0, 0, 0, 0, 0, 0, 0, 0, 0, 0, 0]"] ;
274 -> 294 ;
295 [label="X[2] <= 3.5\ngini = 0.872\nsamples = 17\nvalue = [0, 1, 3, 0, 0, 0, 3, 0, 0, 1, 0, 0, 0, 2\n0, 3, 1, 0, 1, 0, 0, 0, 0, 0, 1, 1, 0]"] ;
265 -> 295 ;
296 [label="X[0] <= 3.5\ngini = 0.735\nsamples = 7\nvalue = [0, 0, 0, 0, 0, 0, 3, 0, 0, 1, 0, 0, 0, 0\n0, 1, 0, 0, 0, 0, 0, 0, 0, 0, 1, 1, 0]"] ;
295 -> 296 ;
297 [label="X[2] <= 2.5\ngini = 0.5\nsamples = 2\nvalue = [0, 0, 0, 0, 0, 0, 1, 0, 0, 1, 0, 0, 0, 0\n0, 0, 0, 0, 0, 0, 0, 0, 0, 0, 0, 0, 0]"] ;
296 -> 297 ;
298 [label="gini = 0.0\nsamples = 1\nvalue = [0, 0, 0, 0, 0, 0, 1, 0, 0, 0, 0, 0, 0, 0\n0, 0, 0, 0, 0, 0, 0, 0, 0, 0, 0, 0, 0]"] ;
297 -> 298 ;
299 [label="gini = 0.0\nsamples = 1\nvalue = [0, 0, 0, 0, 0, 0, 0, 0, 0, 1, 0, 0, 0, 0\n0, 0, 0, 0, 0, 0, 0, 0, 0, 0, 0, 0, 0]"] ;
297 -> 299 ;
300 [label="gini = 0.72\nsamples = 5\nvalue = [0, 0, 0, 0, 0, 0, 2, 0, 0, 0, 0, 0, 0, 0\n0, 1, 0, 0, 0, 0, 0, 0, 0, 0, 1, 1, 0]"] ;
296 -> 300 ;
301 [label="X[0] <= 5.5\ngini = 0.8\nsamples = 10\nvalue = [0, 1, 3, 0, 0, 0, 0, 0, 0, 0, 0, 0, 0, 2\n0, 2, 1, 0, 1, 0, 0, 0, 0, 0, 0, 0, 0]"] ;
295 -> 301 ;
302 [label="X[2] <= 4.5\ngini = 0.72\nsamples = 5\nvalue = [0, 0, 1, 0, 0, 0, 0, 0, 0, 0, 0, 0, 0, 0\n0, 2, 1, 0, 1, 0, 0, 0, 0, 0, 0, 0, 0]"] ;
301 -> 302 ;
303 [label="gini = 0.667\nsamples = 3\nvalue = [0, 0, 1, 0, 0, 0, 0, 0, 0, 0, 0, 0, 0, 0\n0, 1, 0, 0, 1, 0, 0, 0, 0, 0, 0, 0, 0]"] ;
302 -> 303 ;
304 [label="gini = 0.5\nsamples = 2\nvalue = [0, 0, 0, 0, 0, 0, 0, 0, 0, 0, 0, 0, 0, 0\n0, 1, 1, 0, 0, 0, 0, 0, 0, 0, 0, 0, 0]"] ;
302 -> 304 ;
305 [label="X[2] <= 4.5\ngini = 0.64\nsamples = 5\nvalue = [0, 1, 2, 0, 0, 0, 0, 0, 0, 0, 0, 0, 0, 2\n0, 0, 0, 0, 0, 0, 0, 0, 0, 0, 0, 0, 0]"] ;
301 -> 305 ;
306 [label="gini = 0.444\nsamples = 3\nvalue = [0, 1, 0, 0, 0, 0, 0, 0, 0, 0, 0, 0, 0, 2\n0, 0, 0, 0, 0, 0, 0, 0, 0, 0, 0, 0, 0]"] ;
305 -> 306 ;
307 [label="gini = 0.0\nsamples = 2\nvalue = [0, 0, 2, 0, 0, 0, 0, 0, 0, 0, 0, 0, 0, 0\n0, 0, 0, 0, 0, 0, 0, 0, 0, 0, 0, 0, 0]"] ;
305 -> 307 ;
308 [label="X[2] <= 5.5\ngini = 0.822\nsamples = 22\nvalue = [0, 0, 1, 0, 0, 0, 5, 0, 0, 5, 0, 0, 0, 1\n0, 4, 4, 0, 0, 0, 0, 0, 1, 0, 0, 1, 0]"] ;
264 -> 308 ;
309 [label="X[2] <= 3.5\ngini = 0.8\nsamples = 15\nvalue = [0, 0, 0, 0, 0, 0, 2, 0, 0, 5, 0, 0, 0, 1\n0, 2, 3, 0, 0, 0, 0, 0, 1, 0, 0, 1, 0]"] ;
308 -> 309 ;
310 [label="gini = 0.0\nsamples = 1\nvalue = [0, 0, 0, 0, 0, 0, 0, 0, 0, 0, 0, 0, 0, 0\n0, 0, 0, 0, 0, 0, 0, 0, 1, 0, 0, 0, 0]"] ;
309 -> 310 ;
311 [label="X[24] <= 0.5\ngini = 0.776\nsamples = 14\nvalue = [0, 0, 0, 0, 0, 0, 2, 0, 0, 5, 0, 0, 0, 1\n0, 2, 3, 0, 0, 0, 0, 0, 0, 0, 0, 1, 0]"] ;
309 -> 311 ;
312 [label="X[0] <= 7.5\ngini = 0.75\nsamples = 12\nvalue = [0, 0, 0, 0, 0, 0, 1, 0, 0, 5, 0, 0, 0, 1\n0, 2, 2, 0, 0, 0, 0, 0, 0, 0, 0, 1, 0]"] ;
311 -> 312 ;
313 [label="X[2] <= 4.5\ngini = 0.68\nsamples = 10\nvalue = [0, 0, 0, 0, 0, 0, 0, 0, 0, 5, 0, 0, 0, 1\n0, 2, 1, 0, 0, 0, 0, 0, 0, 0, 0, 1, 0]"] ;
312 -> 313 ;
314 [label="gini = 0.667\nsamples = 6\nvalue = [0, 0, 0, 0, 0, 0, 0, 0, 0, 3, 0, 0, 0, 1\n0, 1, 0, 0, 0, 0, 0, 0, 0, 0, 0, 1, 0]"] ;
313 -> 314 ;
315 [label="gini = 0.625\nsamples = 4\nvalue = [0, 0, 0, 0, 0, 0, 0, 0, 0, 2, 0, 0, 0, 0\n0, 1, 1, 0, 0, 0, 0, 0, 0, 0, 0, 0, 0]"] ;
313 -> 315 ;
316 [label="X[2] <= 4.5\ngini = 0.5\nsamples = 2\nvalue = [0, 0, 0, 0, 0, 0, 1, 0, 0, 0, 0, 0, 0, 0\n0, 0, 1, 0, 0, 0, 0, 0, 0, 0, 0, 0, 0]"] ;
312 -> 316 ;
317 [label="gini = 0.0\nsamples = 1\nvalue = [0, 0, 0, 0, 0, 0, 0, 0, 0, 0, 0, 0, 0, 0\n0, 0, 1, 0, 0, 0, 0, 0, 0, 0, 0, 0, 0]"] ;
316 -> 317 ;
318 [label="gini = 0.0\nsamples = 1\nvalue = [0, 0, 0, 0, 0, 0, 1, 0, 0, 0, 0, 0, 0, 0\n0, 0, 0, 0, 0, 0, 0, 0, 0, 0, 0, 0, 0]"] ;
316 -> 318 ;
319 [label="X[2] <= 4.5\ngini = 0.5\nsamples = 2\nvalue = [0, 0, 0, 0, 0, 0, 1, 0, 0, 0, 0, 0, 0, 0\n0, 0, 1, 0, 0, 0, 0, 0, 0, 0, 0, 0, 0]"] ;
311 -> 319 ;
320 [label="gini = 0.0\nsamples = 1\nvalue = [0, 0, 0, 0, 0, 0, 1, 0, 0, 0, 0, 0, 0, 0\n0, 0, 0, 0, 0, 0, 0, 0, 0, 0, 0, 0, 0]"] ;
319 -> 320 ;
321 [label="gini = 0.0\nsamples = 1\nvalue = [0, 0, 0, 0, 0, 0, 0, 0, 0, 0, 0, 0, 0, 0\n0, 0, 1, 0, 0, 0, 0, 0, 0, 0, 0, 0, 0]"] ;
319 -> 321 ;
322 [label="X[22] <= 0.5\ngini = 0.694\nsamples = 7\nvalue = [0, 0, 1, 0, 0, 0, 3, 0, 0, 0, 0, 0, 0, 0\n0, 2, 1, 0, 0, 0, 0, 0, 0, 0, 0, 0, 0]"] ;
308 -> 322 ;
323 [label="X[0] <= 10.0\ngini = 0.56\nsamples = 5\nvalue = [0, 0, 1, 0, 0, 0, 3, 0, 0, 0, 0, 0, 0, 0\n0, 0, 1, 0, 0, 0, 0, 0, 0, 0, 0, 0, 0]"] ;
322 -> 323 ;
324 [label="X[0] <= 8.0\ngini = 0.375\nsamples = 4\nvalue = [0, 0, 0, 0, 0, 0, 3, 0, 0, 0, 0, 0, 0, 0\n0, 0, 1, 0, 0, 0, 0, 0, 0, 0, 0, 0, 0]"] ;
323 -> 324 ;
325 [label="gini = 0.444\nsamples = 3\nvalue = [0, 0, 0, 0, 0, 0, 2, 0, 0, 0, 0, 0, 0, 0\n0, 0, 1, 0, 0, 0, 0, 0, 0, 0, 0, 0, 0]"] ;
324 -> 325 ;
326 [label="gini = 0.0\nsamples = 1\nvalue = [0, 0, 0, 0, 0, 0, 1, 0, 0, 0, 0, 0, 0, 0\n0, 0, 0, 0, 0, 0, 0, 0, 0, 0, 0, 0, 0]"] ;
324 -> 326 ;
327 [label="gini = 0.0\nsamples = 1\nvalue = [0, 0, 1, 0, 0, 0, 0, 0, 0, 0, 0, 0, 0, 0\n0, 0, 0, 0, 0, 0, 0, 0, 0, 0, 0, 0, 0]"] ;
323 -> 327 ;
328 [label="gini = 0.0\nsamples = 2\nvalue = [0, 0, 0, 0, 0, 0, 0, 0, 0, 0, 0, 0, 0, 0\n0, 2, 0, 0, 0, 0, 0, 0, 0, 0, 0, 0, 0]"] ;
322 -> 328 ;
329 [label="X[1] <= 2.5\ngini = 0.83\nsamples = 20\nvalue = [0, 2, 4, 0, 0, 0, 0, 1, 0, 5, 0, 0, 1, 1\n0, 2, 4, 0, 0, 0, 0, 0, 0, 0, 0, 0, 0]"] ;
263 -> 329 ;
330 [label="X[2] <= 3.5\ngini = 0.812\nsamples = 16\nvalue = [0, 2, 3, 0, 0, 0, 0, 1, 0, 5, 0, 0, 0, 1\n0, 2, 2, 0, 0, 0, 0, 0, 0, 0, 0, 0, 0]"] ;
329 -> 330 ;
331 [label="X[2] <= 2.5\ngini = 0.786\nsamples = 14\nvalue = [0, 2, 3, 0, 0, 0, 0, 1, 0, 5, 0, 0, 0, 1\n0, 1, 1, 0, 0, 0, 0, 0, 0, 0, 0, 0, 0]"] ;
330 -> 331 ;
332 [label="X[0] <= 2.5\ngini = 0.75\nsamples = 4\nvalue = [0, 0, 0, 0, 0, 0, 0, 1, 0, 1, 0, 0, 0, 1\n0, 0, 1, 0, 0, 0, 0, 0, 0, 0, 0, 0, 0]"] ;
331 -> 332 ;
333 [label="gini = 0.5\nsamples = 2\nvalue = [0, 0, 0, 0, 0, 0, 0, 0, 0, 1, 0, 0, 0, 1\n0, 0, 0, 0, 0, 0, 0, 0, 0, 0, 0, 0, 0]"] ;
332 -> 333 ;
334 [label="gini = 0.5\nsamples = 2\nvalue = [0, 0, 0, 0, 0, 0, 0, 1, 0, 0, 0, 0, 0, 0\n0, 0, 1, 0, 0, 0, 0, 0, 0, 0, 0, 0, 0]"] ;
332 -> 334 ;
335 [label="X[0] <= 3.5\ngini = 0.7\nsamples = 10\nvalue = [0, 2, 3, 0, 0, 0, 0, 0, 0, 4, 0, 0, 0, 0\n0, 1, 0, 0, 0, 0, 0, 0, 0, 0, 0, 0, 0]"] ;
331 -> 335 ;
336 [label="gini = 0.5\nsamples = 2\nvalue = [0, 1, 1, 0, 0, 0, 0, 0, 0, 0, 0, 0, 0, 0\n0, 0, 0, 0, 0, 0, 0, 0, 0, 0, 0, 0, 0]"] ;
335 -> 336 ;
337 [label="X[0] <= 4.5\ngini = 0.656\nsamples = 8\nvalue = [0, 1, 2, 0, 0, 0, 0, 0, 0, 4, 0, 0, 0, 0\n0, 1, 0, 0, 0, 0, 0, 0, 0, 0, 0, 0, 0]"] ;
335 -> 337 ;
338 [label="X[3] <= 1.5\ngini = 0.611\nsamples = 6\nvalue = [0, 0, 2, 0, 0, 0, 0, 0, 0, 3, 0, 0, 0, 0\n0, 1, 0, 0, 0, 0, 0, 0, 0, 0, 0, 0, 0]"] ;
337 -> 338 ;
339 [label="gini = 0.667\nsamples = 3\nvalue = [0, 0, 1, 0, 0, 0, 0, 0, 0, 1, 0, 0, 0, 0\n0, 1, 0, 0, 0, 0, 0, 0, 0, 0, 0, 0, 0]"] ;
338 -> 339 ;
340 [label="gini = 0.444\nsamples = 3\nvalue = [0, 0, 1, 0, 0, 0, 0, 0, 0, 2, 0, 0, 0, 0\n0, 0, 0, 0, 0, 0, 0, 0, 0, 0, 0, 0, 0]"] ;
338 -> 340 ;
341 [label="X[0] <= 6.0\ngini = 0.5\nsamples = 2\nvalue = [0, 1, 0, 0, 0, 0, 0, 0, 0, 1, 0, 0, 0, 0\n0, 0, 0, 0, 0, 0, 0, 0, 0, 0, 0, 0, 0]"] ;
337 -> 341 ;
342 [label="gini = 0.0\nsamples = 1\nvalue = [0, 1, 0, 0, 0, 0, 0, 0, 0, 0, 0, 0, 0, 0\n0, 0, 0, 0, 0, 0, 0, 0, 0, 0, 0, 0, 0]"] ;
341 -> 342 ;
343 [label="gini = 0.0\nsamples = 1\nvalue = [0, 0, 0, 0, 0, 0, 0, 0, 0, 1, 0, 0, 0, 0\n0, 0, 0, 0, 0, 0, 0, 0, 0, 0, 0, 0, 0]"] ;
341 -> 343 ;
344 [label="X[0] <= 4.5\ngini = 0.5\nsamples = 2\nvalue = [0, 0, 0, 0, 0, 0, 0, 0, 0, 0, 0, 0, 0, 0\n0, 1, 1, 0, 0, 0, 0, 0, 0, 0, 0, 0, 0]"] ;
330 -> 344 ;
345 [label="gini = 0.0\nsamples = 1\nvalue = [0, 0, 0, 0, 0, 0, 0, 0, 0, 0, 0, 0, 0, 0\n0, 1, 0, 0, 0, 0, 0, 0, 0, 0, 0, 0, 0]"] ;
344 -> 345 ;
346 [label="gini = 0.0\nsamples = 1\nvalue = [0, 0, 0, 0, 0, 0, 0, 0, 0, 0, 0, 0, 0, 0\n0, 0, 1, 0, 0, 0, 0, 0, 0, 0, 0, 0, 0]"] ;
344 -> 346 ;
347 [label="X[0] <= 3.5\ngini = 0.625\nsamples = 4\nvalue = [0, 0, 1, 0, 0, 0, 0, 0, 0, 0, 0, 0, 1, 0\n0, 0, 2, 0, 0, 0, 0, 0, 0, 0, 0, 0, 0]"] ;
329 -> 347 ;
348 [label="X[2] <= 2.5\ngini = 0.444\nsamples = 3\nvalue = [0, 0, 0, 0, 0, 0, 0, 0, 0, 0, 0, 0, 1, 0\n0, 0, 2, 0, 0, 0, 0, 0, 0, 0, 0, 0, 0]"] ;
347 -> 348 ;
349 [label="X[0] <= 2.5\ngini = 0.5\nsamples = 2\nvalue = [0, 0, 0, 0, 0, 0, 0, 0, 0, 0, 0, 0, 1, 0\n0, 0, 1, 0, 0, 0, 0, 0, 0, 0, 0, 0, 0]"] ;
348 -> 349 ;
350 [label="gini = 0.0\nsamples = 1\nvalue = [0, 0, 0, 0, 0, 0, 0, 0, 0, 0, 0, 0, 0, 0\n0, 0, 1, 0, 0, 0, 0, 0, 0, 0, 0, 0, 0]"] ;
349 -> 350 ;
351 [label="gini = 0.0\nsamples = 1\nvalue = [0, 0, 0, 0, 0, 0, 0, 0, 0, 0, 0, 0, 1, 0\n0, 0, 0, 0, 0, 0, 0, 0, 0, 0, 0, 0, 0]"] ;
349 -> 351 ;
352 [label="gini = 0.0\nsamples = 1\nvalue = [0, 0, 0, 0, 0, 0, 0, 0, 0, 0, 0, 0, 0, 0\n0, 0, 1, 0, 0, 0, 0, 0, 0, 0, 0, 0, 0]"] ;
348 -> 352 ;
353 [label="gini = 0.0\nsamples = 1\nvalue = [0, 0, 1, 0, 0, 0, 0, 0, 0, 0, 0, 0, 0, 0\n0, 0, 0, 0, 0, 0, 0, 0, 0, 0, 0, 0, 0]"] ;
347 -> 353 ;
354 [label="X[24] <= 0.5\ngini = 0.715\nsamples = 2598\nvalue = [0, 445, 26, 330, 0, 2, 12, 2, 13, 426, 46, 0\n7, 1195, 1, 0, 10, 1, 0, 0, 4, 2, 1, 42, 1\n19, 13]"] ;
2 -> 354 ;
355 [label="X[2] <= 1.5\ngini = 0.731\nsamples = 2316\nvalue = [0, 396, 22, 301, 0, 2, 12, 2, 13, 423, 44, 0\n7, 1005, 1, 0, 9, 1, 0, 0, 3, 2, 1, 41, 1\n19, 11]"] ;
354 -> 355 ;
356 [label="X[0] <= 1.5\ngini = 0.672\nsamples = 606\nvalue = [0, 120, 8, 98, 0, 0, 1, 1, 7, 20, 10, 0, 4\n309, 0, 0, 2, 0, 0, 0, 0, 1, 0, 18, 0, 7, 0]"] ;
355 -> 356 ;
357 [label="X[1] <= 2.5\ngini = 0.743\nsamples = 324\nvalue = [0, 75, 2, 76, 0, 0, 0, 1, 5, 11, 5, 0, 2\n123, 0, 0, 2, 0, 0, 0, 0, 1, 0, 16, 0, 5, 0]"] ;
356 -> 357 ;
358 [label="X[1] <= 1.5\ngini = 0.742\nsamples = 322\nvalue = [0, 73, 2, 76, 0, 0, 0, 1, 5, 11, 5, 0, 2\n123, 0, 0, 2, 0, 0, 0, 0, 1, 0, 16, 0, 5, 0]"] ;
357 -> 358 ;
359 [label="gini = 0.743\nsamples = 318\nvalue = [0, 71, 2, 75, 0, 0, 0, 1, 5, 11, 5, 0, 2\n122, 0, 0, 2, 0, 0, 0, 0, 1, 0, 16, 0, 5, 0]"] ;
358 -> 359 ;
360 [label="gini = 0.625\nsamples = 4\nvalue = [0, 2, 0, 1, 0, 0, 0, 0, 0, 0, 0, 0, 0, 1\n0, 0, 0, 0, 0, 0, 0, 0, 0, 0, 0, 0, 0]"] ;
358 -> 360 ;
361 [label="gini = 0.0\nsamples = 2\nvalue = [0, 2, 0, 0, 0, 0, 0, 0, 0, 0, 0, 0, 0, 0\n0, 0, 0, 0, 0, 0, 0, 0, 0, 0, 0, 0, 0]"] ;
357 -> 361 ;
362 [label="X[0] <= 4.5\ngini = 0.531\nsamples = 282\nvalue = [0, 45, 6, 22, 0, 0, 1, 0, 2, 9, 5, 0, 2, 186\n0, 0, 0, 0, 0, 0, 0, 0, 0, 2, 0, 2, 0]"] ;
356 -> 362 ;
363 [label="X[0] <= 2.5\ngini = 0.527\nsamples = 280\nvalue = [0, 43, 6, 22, 0, 0, 1, 0, 2, 9, 5, 0, 2, 186\n0, 0, 0, 0, 0, 0, 0, 0, 0, 2, 0, 2, 0]"] ;
362 -> 363 ;
364 [label="X[1] <= 1.5\ngini = 0.588\nsamples = 190\nvalue = [0, 30, 5, 20, 0, 0, 1, 0, 1, 7, 5, 0, 1, 116\n0, 0, 0, 0, 0, 0, 0, 0, 0, 2, 0, 2, 0]"] ;
363 -> 364 ;
365 [label="gini = 0.592\nsamples = 185\nvalue = [0, 30, 5, 20, 0, 0, 1, 0, 1, 7, 5, 0, 0, 112\n0, 0, 0, 0, 0, 0, 0, 0, 0, 2, 0, 2, 0]"] ;
364 -> 365 ;
366 [label="X[1] <= 2.5\ngini = 0.32\nsamples = 5\nvalue = [0, 0, 0, 0, 0, 0, 0, 0, 0, 0, 0, 0, 1, 4\n0, 0, 0, 0, 0, 0, 0, 0, 0, 0, 0, 0, 0]"] ;
364 -> 366 ;
367 [label="X[3] <= 1.5\ngini = 0.375\nsamples = 4\nvalue = [0, 0, 0, 0, 0, 0, 0, 0, 0, 0, 0, 0, 1, 3\n0, 0, 0, 0, 0, 0, 0, 0, 0, 0, 0, 0, 0]"] ;
366 -> 367 ;
368 [label="gini = 0.0\nsamples = 1\nvalue = [0, 0, 0, 0, 0, 0, 0, 0, 0, 0, 0, 0, 0, 1\n0, 0, 0, 0, 0, 0, 0, 0, 0, 0, 0, 0, 0]"] ;
367 -> 368 ;
369 [label="gini = 0.444\nsamples = 3\nvalue = [0, 0, 0, 0, 0, 0, 0, 0, 0, 0, 0, 0, 1, 2\n0, 0, 0, 0, 0, 0, 0, 0, 0, 0, 0, 0, 0]"] ;
367 -> 369 ;
370 [label="gini = 0.0\nsamples = 1\nvalue = [0, 0, 0, 0, 0, 0, 0, 0, 0, 0, 0, 0, 0, 1\n0, 0, 0, 0, 0, 0, 0, 0, 0, 0, 0, 0, 0]"] ;
366 -> 370 ;
371 [label="X[0] <= 3.5\ngini = 0.373\nsamples = 90\nvalue = [0, 13, 1, 2, 0, 0, 0, 0, 1, 2, 0, 0, 1, 70\n0, 0, 0, 0, 0, 0, 0, 0, 0, 0, 0, 0, 0]"] ;
363 -> 371 ;
372 [label="gini = 0.392\nsamples = 72\nvalue = [0, 11, 1, 1, 0, 0, 0, 0, 1, 2, 0, 0, 1, 55\n0, 0, 0, 0, 0, 0, 0, 0, 0, 0, 0, 0, 0]"] ;
371 -> 372 ;
373 [label="gini = 0.29\nsamples = 18\nvalue = [0, 2, 0, 1, 0, 0, 0, 0, 0, 0, 0, 0, 0, 15\n0, 0, 0, 0, 0, 0, 0, 0, 0, 0, 0, 0, 0]"] ;
371 -> 373 ;
374 [label="gini = 0.0\nsamples = 2\nvalue = [0, 2, 0, 0, 0, 0, 0, 0, 0, 0, 0, 0, 0, 0\n0, 0, 0, 0, 0, 0, 0, 0, 0, 0, 0, 0, 0]"] ;
362 -> 374 ;
375 [label="X[0] <= 3.5\ngini = 0.738\nsamples = 1710\nvalue = [0, 276, 14, 203, 0, 2, 11, 1, 6, 403, 34, 0, 3\n696, 1, 0, 7, 1, 0, 0, 3, 1, 1, 23, 1, 12\n11]"] ;
355 -> 375 ;
376 [label="X[3] <= 1.5\ngini = 0.762\nsamples = 760\nvalue = [0, 118, 5, 117, 0, 1, 3, 0, 3, 248, 13, 0, 1\n218, 0, 0, 3, 0, 0, 0, 0, 0, 1, 16, 1, 9, 3]"] ;
375 -> 376 ;
377 [label="X[2] <= 2.5\ngini = 0.766\nsamples = 719\nvalue = [0, 115, 5, 115, 0, 1, 3, 0, 2, 219, 13, 0, 1\n214, 0, 0, 3, 0, 0, 0, 0, 0, 1, 14, 1, 9, 3]"] ;
376 -> 377 ;
378 [label="X[0] <= 2.5\ngini = 0.753\nsamples = 539\nvalue = [0, 78, 5, 77, 0, 0, 2, 0, 2, 178, 11, 0, 1\n167, 0, 0, 2, 0, 0, 0, 0, 0, 0, 9, 1, 5, 1]"] ;
377 -> 378 ;
379 [label="X[1] <= 1.5\ngini = 0.775\nsamples = 267\nvalue = [0, 41, 5, 50, 0, 0, 1, 0, 0, 89, 7, 0, 1, 62\n0, 0, 1, 0, 0, 0, 0, 0, 0, 6, 1, 2, 1]"] ;
378 -> 379 ;
380 [label="gini = 0.773\nsamples = 264\nvalue = [0, 40, 4, 50, 0, 0, 1, 0, 0, 89, 7, 0, 1, 61\n0, 0, 1, 0, 0, 0, 0, 0, 0, 6, 1, 2, 1]"] ;
379 -> 380 ;
381 [label="gini = 0.667\nsamples = 3\nvalue = [0, 1, 1, 0, 0, 0, 0, 0, 0, 0, 0, 0, 0, 1\n0, 0, 0, 0, 0, 0, 0, 0, 0, 0, 0, 0, 0]"] ;
379 -> 381 ;
382 [label="X[1] <= 1.5\ngini = 0.715\nsamples = 272\nvalue = [0, 37, 0, 27, 0, 0, 1, 0, 2, 89, 4, 0, 0\n105, 0, 0, 1, 0, 0, 0, 0, 0, 0, 3, 0, 3, 0]"] ;
378 -> 382 ;
383 [label="gini = 0.716\nsamples = 270\nvalue = [0, 37, 0, 27, 0, 0, 1, 0, 2, 89, 4, 0, 0\n103, 0, 0, 1, 0, 0, 0, 0, 0, 0, 3, 0, 3, 0]"] ;
382 -> 383 ;
384 [label="gini = 0.0\nsamples = 2\nvalue = [0, 0, 0, 0, 0, 0, 0, 0, 0, 0, 0, 0, 0, 2\n0, 0, 0, 0, 0, 0, 0, 0, 0, 0, 0, 0, 0]"] ;
382 -> 384 ;
385 [label="X[1] <= 1.5\ngini = 0.791\nsamples = 180\nvalue = [0, 37, 0, 38, 0, 1, 1, 0, 0, 41, 2, 0, 0, 47\n0, 0, 1, 0, 0, 0, 0, 0, 1, 5, 0, 4, 2]"] ;
377 -> 385 ;
386 [label="gini = 0.792\nsamples = 179\nvalue = [0, 37, 0, 38, 0, 1, 1, 0, 0, 41, 2, 0, 0, 46\n0, 0, 1, 0, 0, 0, 0, 0, 1, 5, 0, 4, 2]"] ;
385 -> 386 ;
387 [label="gini = 0.0\nsamples = 1\nvalue = [0, 0, 0, 0, 0, 0, 0, 0, 0, 0, 0, 0, 0, 1\n0, 0, 0, 0, 0, 0, 0, 0, 0, 0, 0, 0, 0]"] ;
385 -> 387 ;
388 [label="X[3] <= 3.5\ngini = 0.479\nsamples = 41\nvalue = [0, 3, 0, 2, 0, 0, 0, 0, 1, 29, 0, 0, 0, 4\n0, 0, 0, 0, 0, 0, 0, 0, 0, 2, 0, 0, 0]"] ;
376 -> 388 ;
389 [label="X[0] <= 2.5\ngini = 0.429\nsamples = 39\nvalue = [0, 3, 0, 1, 0, 0, 0, 0, 1, 29, 0, 0, 0, 4\n0, 0, 0, 0, 0, 0, 0, 0, 0, 1, 0, 0, 0]"] ;
388 -> 389 ;
390 [label="X[1] <= 2.5\ngini = 0.459\nsamples = 14\nvalue = [0, 2, 0, 0, 0, 0, 0, 0, 0, 10, 0, 0, 0, 1\n0, 0, 0, 0, 0, 0, 0, 0, 0, 1, 0, 0, 0]"] ;
389 -> 390 ;
391 [label="gini = 0.612\nsamples = 7\nvalue = [0, 1, 0, 0, 0, 0, 0, 0, 0, 4, 0, 0, 0, 1\n0, 0, 0, 0, 0, 0, 0, 0, 0, 1, 0, 0, 0]"] ;
390 -> 391 ;
392 [label="X[1] <= 5.0\ngini = 0.245\nsamples = 7\nvalue = [0, 1, 0, 0, 0, 0, 0, 0, 0, 6, 0, 0, 0, 0\n0, 0, 0, 0, 0, 0, 0, 0, 0, 0, 0, 0, 0]"] ;
390 -> 392 ;
393 [label="X[3] <= 2.5\ngini = 0.278\nsamples = 6\nvalue = [0, 1, 0, 0, 0, 0, 0, 0, 0, 5, 0, 0, 0, 0\n0, 0, 0, 0, 0, 0, 0, 0, 0, 0, 0, 0, 0]"] ;
392 -> 393 ;
394 [label="gini = 0.0\nsamples = 1\nvalue = [0, 0, 0, 0, 0, 0, 0, 0, 0, 1, 0, 0, 0, 0\n0, 0, 0, 0, 0, 0, 0, 0, 0, 0, 0, 0, 0]"] ;
393 -> 394 ;
395 [label="gini = 0.32\nsamples = 5\nvalue = [0, 1, 0, 0, 0, 0, 0, 0, 0, 4, 0, 0, 0, 0\n0, 0, 0, 0, 0, 0, 0, 0, 0, 0, 0, 0, 0]"] ;
393 -> 395 ;
396 [label="gini = 0.0\nsamples = 1\nvalue = [0, 0, 0, 0, 0, 0, 0, 0, 0, 1, 0, 0, 0, 0\n0, 0, 0, 0, 0, 0, 0, 0, 0, 0, 0, 0, 0]"] ;
392 -> 396 ;
397 [label="X[3] <= 2.5\ngini = 0.403\nsamples = 25\nvalue = [0, 1, 0, 1, 0, 0, 0, 0, 1, 19, 0, 0, 0, 3\n0, 0, 0, 0, 0, 0, 0, 0, 0, 0, 0, 0, 0]"] ;
389 -> 397 ;
398 [label="X[2] <= 2.5\ngini = 0.198\nsamples = 9\nvalue = [0, 0, 0, 0, 0, 0, 0, 0, 0, 8, 0, 0, 0, 1\n0, 0, 0, 0, 0, 0, 0, 0, 0, 0, 0, 0, 0]"] ;
397 -> 398 ;
399 [label="gini = 0.0\nsamples = 4\nvalue = [0, 0, 0, 0, 0, 0, 0, 0, 0, 4, 0, 0, 0, 0\n0, 0, 0, 0, 0, 0, 0, 0, 0, 0, 0, 0, 0]"] ;
398 -> 399 ;
400 [label="gini = 0.32\nsamples = 5\nvalue = [0, 0, 0, 0, 0, 0, 0, 0, 0, 4, 0, 0, 0, 1\n0, 0, 0, 0, 0, 0, 0, 0, 0, 0, 0, 0, 0]"] ;
398 -> 400 ;
401 [label="X[2] <= 2.5\ngini = 0.5\nsamples = 16\nvalue = [0, 1, 0, 1, 0, 0, 0, 0, 1, 11, 0, 0, 0, 2\n0, 0, 0, 0, 0, 0, 0, 0, 0, 0, 0, 0, 0]"] ;
397 -> 401 ;
402 [label="gini = 0.5\nsamples = 2\nvalue = [0, 0, 0, 1, 0, 0, 0, 0, 0, 0, 0, 0, 0, 1\n0, 0, 0, 0, 0, 0, 0, 0, 0, 0, 0, 0, 0]"] ;
401 -> 402 ;
403 [label="X[1] <= 4.5\ngini = 0.367\nsamples = 14\nvalue = [0, 1, 0, 0, 0, 0, 0, 0, 1, 11, 0, 0, 0, 1\n0, 0, 0, 0, 0, 0, 0, 0, 0, 0, 0, 0, 0]"] ;
401 -> 403 ;
404 [label="gini = 0.391\nsamples = 13\nvalue = [0, 1, 0, 0, 0, 0, 0, 0, 1, 10, 0, 0, 0, 1\n0, 0, 0, 0, 0, 0, 0, 0, 0, 0, 0, 0, 0]"] ;
403 -> 404 ;
405 [label="gini = 0.0\nsamples = 1\nvalue = [0, 0, 0, 0, 0, 0, 0, 0, 0, 1, 0, 0, 0, 0\n0, 0, 0, 0, 0, 0, 0, 0, 0, 0, 0, 0, 0]"] ;
403 -> 405 ;
406 [label="X[1] <= 4.5\ngini = 0.5\nsamples = 2\nvalue = [0, 0, 0, 1, 0, 0, 0, 0, 0, 0, 0, 0, 0, 0\n0, 0, 0, 0, 0, 0, 0, 0, 0, 1, 0, 0, 0]"] ;
388 -> 406 ;
407 [label="gini = 0.0\nsamples = 1\nvalue = [0, 0, 0, 0, 0, 0, 0, 0, 0, 0, 0, 0, 0, 0\n0, 0, 0, 0, 0, 0, 0, 0, 0, 1, 0, 0, 0]"] ;
406 -> 407 ;
408 [label="gini = 0.0\nsamples = 1\nvalue = [0, 0, 0, 1, 0, 0, 0, 0, 0, 0, 0, 0, 0, 0\n0, 0, 0, 0, 0, 0, 0, 0, 0, 0, 0, 0, 0]"] ;
406 -> 408 ;
409 [label="X[1] <= 1.5\ngini = 0.684\nsamples = 950\nvalue = [0, 158, 9, 86, 0, 1, 8, 1, 3, 155, 21, 0, 2\n478, 1, 0, 4, 1, 0, 0, 3, 1, 0, 7, 0, 3, 8]"] ;
375 -> 409 ;
410 [label="X[2] <= 5.5\ngini = 0.674\nsamples = 912\nvalue = [0, 148, 7, 81, 0, 1, 8, 1, 3, 145, 20, 0, 2\n470, 1, 0, 3, 1, 0, 0, 2, 1, 0, 7, 0, 3, 8]"] ;
409 -> 410 ;
411 [label="X[2] <= 2.5\ngini = 0.67\nsamples = 882\nvalue = [0, 135, 7, 80, 0, 1, 8, 1, 3, 142, 18, 0, 2\n460, 1, 0, 3, 1, 0, 0, 2, 1, 0, 6, 0, 3, 8]"] ;
410 -> 411 ;
412 [label="X[0] <= 4.5\ngini = 0.569\nsamples = 132\nvalue = [0, 20, 2, 4, 0, 1, 1, 0, 0, 19, 1, 0, 0, 82\n0, 0, 0, 0, 0, 0, 0, 0, 0, 1, 0, 1, 0]"] ;
411 -> 412 ;
413 [label="gini = 0.613\nsamples = 91\nvalue = [0, 17, 1, 3, 0, 0, 1, 0, 0, 14, 1, 0, 0, 52\n0, 0, 0, 0, 0, 0, 0, 0, 0, 1, 0, 1, 0]"] ;
412 -> 413 ;
414 [label="X[0] <= 5.5\ngini = 0.443\nsamples = 41\nvalue = [0, 3, 1, 1, 0, 1, 0, 0, 0, 5, 0, 0, 0, 30\n0, 0, 0, 0, 0, 0, 0, 0, 0, 0, 0, 0, 0]"] ;
412 -> 414 ;
415 [label="gini = 0.436\nsamples = 34\nvalue = [0, 3, 0, 1, 0, 1, 0, 0, 0, 4, 0, 0, 0, 25\n0, 0, 0, 0, 0, 0, 0, 0, 0, 0, 0, 0, 0]"] ;
414 -> 415 ;
416 [label="X[0] <= 6.5\ngini = 0.449\nsamples = 7\nvalue = [0, 0, 1, 0, 0, 0, 0, 0, 0, 1, 0, 0, 0, 5\n0, 0, 0, 0, 0, 0, 0, 0, 0, 0, 0, 0, 0]"] ;
414 -> 416 ;
417 [label="gini = 0.5\nsamples = 6\nvalue = [0, 0, 1, 0, 0, 0, 0, 0, 0, 1, 0, 0, 0, 4\n0, 0, 0, 0, 0, 0, 0, 0, 0, 0, 0, 0, 0]"] ;
416 -> 417 ;
418 [label="gini = 0.0\nsamples = 1\nvalue = [0, 0, 0, 0, 0, 0, 0, 0, 0, 0, 0, 0, 0, 1\n0, 0, 0, 0, 0, 0, 0, 0, 0, 0, 0, 0, 0]"] ;
416 -> 418 ;
419 [label="X[3] <= 0.5\ngini = 0.684\nsamples = 750\nvalue = [0, 115, 5, 76, 0, 0, 7, 1, 3, 123, 17, 0, 2\n378, 1, 0, 3, 1, 0, 0, 2, 1, 0, 5, 0, 2, 8]"] ;
411 -> 419 ;
420 [label="X[2] <= 4.5\ngini = 0.444\nsamples = 3\nvalue = [0, 0, 0, 2, 0, 0, 0, 0, 0, 1, 0, 0, 0, 0\n0, 0, 0, 0, 0, 0, 0, 0, 0, 0, 0, 0, 0]"] ;
419 -> 420 ;
421 [label="gini = 0.0\nsamples = 2\nvalue = [0, 0, 0, 2, 0, 0, 0, 0, 0, 0, 0, 0, 0, 0\n0, 0, 0, 0, 0, 0, 0, 0, 0, 0, 0, 0, 0]"] ;
420 -> 421 ;
422 [label="gini = 0.0\nsamples = 1\nvalue = [0, 0, 0, 0, 0, 0, 0, 0, 0, 1, 0, 0, 0, 0\n0, 0, 0, 0, 0, 0, 0, 0, 0, 0, 0, 0, 0]"] ;
420 -> 422 ;
423 [label="X[2] <= 3.5\ngini = 0.683\nsamples = 747\nvalue = [0, 115, 5, 74, 0, 0, 7, 1, 3, 122, 17, 0, 2\n378, 1, 0, 3, 1, 0, 0, 2, 1, 0, 5, 0, 2, 8]"] ;
419 -> 423 ;
424 [label="X[0] <= 4.5\ngini = 0.679\nsamples = 357\nvalue = [0, 52, 2, 26, 0, 0, 5, 0, 2, 73, 9, 0, 2\n179, 0, 0, 2, 0, 0, 0, 1, 1, 0, 2, 0, 0, 1]"] ;
423 -> 424 ;
425 [label="gini = 0.691\nsamples = 189\nvalue = [0, 24, 1, 15, 0, 0, 2, 0, 2, 46, 3, 0, 2, 90\n0, 0, 1, 0, 0, 0, 0, 1, 0, 1, 0, 0, 1]"] ;
424 -> 425 ;
426 [label="X[0] <= 5.5\ngini = 0.66\nsamples = 168\nvalue = [0, 28, 1, 11, 0, 0, 3, 0, 0, 27, 6, 0, 0, 89\n0, 0, 1, 0, 0, 0, 1, 0, 0, 1, 0, 0, 0]"] ;
424 -> 426 ;
427 [label="gini = 0.673\nsamples = 115\nvalue = [0, 18, 1, 8, 0, 0, 3, 0, 0, 21, 3, 0, 0, 59\n0, 0, 1, 0, 0, 0, 0, 0, 0, 1, 0, 0, 0]"] ;
426 -> 427 ;
428 [label="X[0] <= 7.5\ngini = 0.624\nsamples = 53\nvalue = [0, 10, 0, 3, 0, 0, 0, 0, 0, 6, 3, 0, 0, 30\n0, 0, 0, 0, 0, 0, 1, 0, 0, 0, 0, 0, 0]"] ;
426 -> 428 ;
429 [label="X[0] <= 6.5\ngini = 0.636\nsamples = 49\nvalue = [0, 10, 0, 3, 0, 0, 0, 0, 0, 5, 3, 0, 0, 27\n0, 0, 0, 0, 0, 0, 1, 0, 0, 0, 0, 0, 0]"] ;
428 -> 429 ;
430 [label="gini = 0.65\nsamples = 37\nvalue = [0, 7, 0, 2, 0, 0, 0, 0, 0, 4, 3, 0, 0, 20\n0, 0, 0, 0, 0, 0, 1, 0, 0, 0, 0, 0, 0]"] ;
429 -> 430 ;
431 [label="gini = 0.583\nsamples = 12\nvalue = [0, 3, 0, 1, 0, 0, 0, 0, 0, 1, 0, 0, 0, 7\n0, 0, 0, 0, 0, 0, 0, 0, 0, 0, 0, 0, 0]"] ;
429 -> 431 ;
432 [label="X[0] <= 8.5\ngini = 0.375\nsamples = 4\nvalue = [0, 0, 0, 0, 0, 0, 0, 0, 0, 1, 0, 0, 0, 3\n0, 0, 0, 0, 0, 0, 0, 0, 0, 0, 0, 0, 0]"] ;
428 -> 432 ;
433 [label="gini = 0.0\nsamples = 2\nvalue = [0, 0, 0, 0, 0, 0, 0, 0, 0, 0, 0, 0, 0, 2\n0, 0, 0, 0, 0, 0, 0, 0, 0, 0, 0, 0, 0]"] ;
432 -> 433 ;
434 [label="X[0] <= 9.5\ngini = 0.5\nsamples = 2\nvalue = [0, 0, 0, 0, 0, 0, 0, 0, 0, 1, 0, 0, 0, 1\n0, 0, 0, 0, 0, 0, 0, 0, 0, 0, 0, 0, 0]"] ;
432 -> 434 ;
435 [label="gini = 0.0\nsamples = 1\nvalue = [0, 0, 0, 0, 0, 0, 0, 0, 0, 1, 0, 0, 0, 0\n0, 0, 0, 0, 0, 0, 0, 0, 0, 0, 0, 0, 0]"] ;
434 -> 435 ;
436 [label="gini = 0.0\nsamples = 1\nvalue = [0, 0, 0, 0, 0, 0, 0, 0, 0, 0, 0, 0, 0, 1\n0, 0, 0, 0, 0, 0, 0, 0, 0, 0, 0, 0, 0]"] ;
434 -> 436 ;
437 [label="X[0] <= 6.5\ngini = 0.682\nsamples = 390\nvalue = [0, 63, 3, 48, 0, 0, 2, 1, 1, 49, 8, 0, 0\n199, 1, 0, 1, 1, 0, 0, 1, 0, 0, 3, 0, 2, 7]"] ;
423 -> 437 ;
438 [label="X[0] <= 4.5\ngini = 0.7\nsamples = 293\nvalue = [0, 50, 3, 39, 0, 0, 2, 1, 1, 35, 7, 0, 0\n143, 1, 0, 1, 1, 0, 0, 1, 0, 0, 1, 0, 2, 5]"] ;
437 -> 438 ;
439 [label="gini = 0.685\nsamples = 59\nvalue = [0, 15, 1, 6, 0, 0, 0, 1, 0, 7, 0, 0, 0, 28\n0, 0, 0, 0, 0, 0, 0, 0, 0, 1, 0, 0, 0]"] ;
438 -> 439 ;
440 [label="X[2] <= 4.5\ngini = 0.7\nsamples = 234\nvalue = [0, 35, 2, 33, 0, 0, 2, 0, 1, 28, 7, 0, 0\n115, 1, 0, 1, 1, 0, 0, 1, 0, 0, 0, 0, 2, 5]"] ;
438 -> 440 ;
441 [label="X[0] <= 5.5\ngini = 0.677\nsamples = 158\nvalue = [0, 24, 1, 21, 0, 0, 1, 0, 0, 17, 5, 0, 0, 82\n1, 0, 1, 1, 0, 0, 1, 0, 0, 0, 0, 0, 3]"] ;
440 -> 441 ;
442 [label="gini = 0.672\nsamples = 90\nvalue = [0, 15, 1, 10, 0, 0, 0, 0, 0, 10, 3, 0, 0, 47\n1, 0, 0, 0, 0, 0, 0, 0, 0, 0, 0, 0, 3]"] ;
441 -> 442 ;
443 [label="gini = 0.679\nsamples = 68\nvalue = [0, 9, 0, 11, 0, 0, 1, 0, 0, 7, 2, 0, 0, 35\n0, 0, 1, 1, 0, 0, 1, 0, 0, 0, 0, 0, 0]"] ;
441 -> 443 ;
444 [label="X[0] <= 5.5\ngini = 0.742\nsamples = 76\nvalue = [0, 11, 1, 12, 0, 0, 1, 0, 1, 11, 2, 0, 0, 33\n0, 0, 0, 0, 0, 0, 0, 0, 0, 0, 0, 2, 2]"] ;
440 -> 444 ;
445 [label="gini = 0.801\nsamples = 28\nvalue = [0, 4, 1, 3, 0, 0, 1, 0, 1, 5, 1, 0, 0, 10\n0, 0, 0, 0, 0, 0, 0, 0, 0, 0, 0, 1, 1]"] ;
444 -> 445 ;
446 [label="gini = 0.697\nsamples = 48\nvalue = [0, 7, 0, 9, 0, 0, 0, 0, 0, 6, 1, 0, 0, 23\n0, 0, 0, 0, 0, 0, 0, 0, 0, 0, 0, 1, 1]"] ;
444 -> 446 ;
447 [label="X[0] <= 7.5\ngini = 0.618\nsamples = 97\nvalue = [0, 13, 0, 9, 0, 0, 0, 0, 0, 14, 1, 0, 0, 56\n0, 0, 0, 0, 0, 0, 0, 0, 0, 2, 0, 0, 2]"] ;
437 -> 447 ;
448 [label="X[2] <= 4.5\ngini = 0.589\nsamples = 56\nvalue = [0, 4, 0, 7, 0, 0, 0, 0, 0, 8, 1, 0, 0, 34\n0, 0, 0, 0, 0, 0, 0, 0, 0, 0, 0, 0, 2]"] ;
447 -> 448 ;
449 [label="gini = 0.49\nsamples = 29\nvalue = [0, 2, 0, 3, 0, 0, 0, 0, 0, 4, 0, 0, 0, 20\n0, 0, 0, 0, 0, 0, 0, 0, 0, 0, 0, 0, 0]"] ;
448 -> 449 ;
450 [label="gini = 0.675\nsamples = 27\nvalue = [0, 2, 0, 4, 0, 0, 0, 0, 0, 4, 1, 0, 0, 14\n0, 0, 0, 0, 0, 0, 0, 0, 0, 0, 0, 0, 2]"] ;
448 -> 450 ;
451 [label="X[2] <= 4.5\ngini = 0.638\nsamples = 41\nvalue = [0, 9, 0, 2, 0, 0, 0, 0, 0, 6, 0, 0, 0, 22\n0, 0, 0, 0, 0, 0, 0, 0, 0, 2, 0, 0, 0]"] ;
447 -> 451 ;
452 [label="X[0] <= 9.5\ngini = 0.679\nsamples = 18\nvalue = [0, 3, 0, 1, 0, 0, 0, 0, 0, 3, 0, 0, 0, 9\n0, 0, 0, 0, 0, 0, 0, 0, 0, 2, 0, 0, 0]"] ;
451 -> 452 ;
453 [label="X[0] <= 8.5\ngini = 0.719\nsamples = 16\nvalue = [0, 3, 0, 1, 0, 0, 0, 0, 0, 3, 0, 0, 0, 7\n0, 0, 0, 0, 0, 0, 0, 0, 0, 2, 0, 0, 0]"] ;
452 -> 453 ;
454 [label="gini = 0.642\nsamples = 9\nvalue = [0, 1, 0, 1, 0, 0, 0, 0, 0, 1, 0, 0, 0, 5\n0, 0, 0, 0, 0, 0, 0, 0, 0, 1, 0, 0, 0]"] ;
453 -> 454 ;
455 [label="gini = 0.735\nsamples = 7\nvalue = [0, 2, 0, 0, 0, 0, 0, 0, 0, 2, 0, 0, 0, 2\n0, 0, 0, 0, 0, 0, 0, 0, 0, 1, 0, 0, 0]"] ;
453 -> 455 ;
456 [label="gini = 0.0\nsamples = 2\nvalue = [0, 0, 0, 0, 0, 0, 0, 0, 0, 0, 0, 0, 0, 2\n0, 0, 0, 0, 0, 0, 0, 0, 0, 0, 0, 0, 0]"] ;
452 -> 456 ;
457 [label="X[0] <= 9.5\ngini = 0.594\nsamples = 23\nvalue = [0, 6, 0, 1, 0, 0, 0, 0, 0, 3, 0, 0, 0, 13\n0, 0, 0, 0, 0, 0, 0, 0, 0, 0, 0, 0, 0]"] ;
451 -> 457 ;
458 [label="X[0] <= 8.5\ngini = 0.521\nsamples = 19\nvalue = [0, 5, 0, 0, 0, 0, 0, 0, 0, 2, 0, 0, 0, 12\n0, 0, 0, 0, 0, 0, 0, 0, 0, 0, 0, 0, 0]"] ;
457 -> 458 ;
459 [label="gini = 0.592\nsamples = 13\nvalue = [0, 4, 0, 0, 0, 0, 0, 0, 0, 2, 0, 0, 0, 7\n0, 0, 0, 0, 0, 0, 0, 0, 0, 0, 0, 0, 0]"] ;
458 -> 459 ;
460 [label="gini = 0.278\nsamples = 6\nvalue = [0, 1, 0, 0, 0, 0, 0, 0, 0, 0, 0, 0, 0, 5\n0, 0, 0, 0, 0, 0, 0, 0, 0, 0, 0, 0, 0]"] ;
458 -> 460 ;
461 [label="gini = 0.75\nsamples = 4\nvalue = [0, 1, 0, 1, 0, 0, 0, 0, 0, 1, 0, 0, 0, 1\n0, 0, 0, 0, 0, 0, 0, 0, 0, 0, 0, 0, 0]"] ;
457 -> 461 ;
462 [label="X[0] <= 7.5\ngini = 0.684\nsamples = 30\nvalue = [0, 13, 0, 1, 0, 0, 0, 0, 0, 3, 2, 0, 0, 10\n0, 0, 0, 0, 0, 0, 0, 0, 0, 1, 0, 0, 0]"] ;
410 -> 462 ;
463 [label="X[0] <= 6.5\ngini = 0.426\nsamples = 13\nvalue = [0, 9, 0, 0, 0, 0, 0, 0, 0, 0, 0, 0, 0, 4\n0, 0, 0, 0, 0, 0, 0, 0, 0, 0, 0, 0, 0]"] ;
462 -> 463 ;
464 [label="gini = 0.346\nsamples = 9\nvalue = [0, 7, 0, 0, 0, 0, 0, 0, 0, 0, 0, 0, 0, 2\n0, 0, 0, 0, 0, 0, 0, 0, 0, 0, 0, 0, 0]"] ;
463 -> 464 ;
465 [label="gini = 0.5\nsamples = 4\nvalue = [0, 2, 0, 0, 0, 0, 0, 0, 0, 0, 0, 0, 0, 2\n0, 0, 0, 0, 0, 0, 0, 0, 0, 0, 0, 0, 0]"] ;
463 -> 465 ;
466 [label="X[0] <= 11.5\ngini = 0.768\nsamples = 17\nvalue = [0, 4, 0, 1, 0, 0, 0, 0, 0, 3, 2, 0, 0, 6\n0, 0, 0, 0, 0, 0, 0, 0, 0, 1, 0, 0, 0]"] ;
462 -> 466 ;
467 [label="X[2] <= 6.5\ngini = 0.756\nsamples = 15\nvalue = [0, 2, 0, 1, 0, 0, 0, 0, 0, 3, 2, 0, 0, 6\n0, 0, 0, 0, 0, 0, 0, 0, 0, 1, 0, 0, 0]"] ;
466 -> 467 ;
468 [label="X[0] <= 10.5\ngini = 0.745\nsamples = 14\nvalue = [0, 2, 0, 1, 0, 0, 0, 0, 0, 2, 2, 0, 0, 6\n0, 0, 0, 0, 0, 0, 0, 0, 0, 1, 0, 0, 0]"] ;
467 -> 468 ;
469 [label="X[0] <= 9.5\ngini = 0.777\nsamples = 11\nvalue = [0, 2, 0, 1, 0, 0, 0, 0, 0, 2, 1, 0, 0, 4\n0, 0, 0, 0, 0, 0, 0, 0, 0, 1, 0, 0, 0]"] ;
468 -> 469 ;
470 [label="X[0] <= 8.5\ngini = 0.76\nsamples = 10\nvalue = [0, 2, 0, 1, 0, 0, 0, 0, 0, 1, 1, 0, 0, 4\n0, 0, 0, 0, 0, 0, 0, 0, 0, 1, 0, 0, 0]"] ;
469 -> 470 ;
471 [label="gini = 0.79\nsamples = 9\nvalue = [0, 2, 0, 1, 0, 0, 0, 0, 0, 1, 1, 0, 0, 3\n0, 0, 0, 0, 0, 0, 0, 0, 0, 1, 0, 0, 0]"] ;
470 -> 471 ;
472 [label="gini = 0.0\nsamples = 1\nvalue = [0, 0, 0, 0, 0, 0, 0, 0, 0, 0, 0, 0, 0, 1\n0, 0, 0, 0, 0, 0, 0, 0, 0, 0, 0, 0, 0]"] ;
470 -> 472 ;
473 [label="gini = 0.0\nsamples = 1\nvalue = [0, 0, 0, 0, 0, 0, 0, 0, 0, 1, 0, 0, 0, 0\n0, 0, 0, 0, 0, 0, 0, 0, 0, 0, 0, 0, 0]"] ;
469 -> 473 ;
474 [label="gini = 0.444\nsamples = 3\nvalue = [0, 0, 0, 0, 0, 0, 0, 0, 0, 0, 1, 0, 0, 2\n0, 0, 0, 0, 0, 0, 0, 0, 0, 0, 0, 0, 0]"] ;
468 -> 474 ;
475 [label="gini = 0.0\nsamples = 1\nvalue = [0, 0, 0, 0, 0, 0, 0, 0, 0, 1, 0, 0, 0, 0\n0, 0, 0, 0, 0, 0, 0, 0, 0, 0, 0, 0, 0]"] ;
467 -> 475 ;
476 [label="gini = 0.0\nsamples = 2\nvalue = [0, 2, 0, 0, 0, 0, 0, 0, 0, 0, 0, 0, 0, 0\n0, 0, 0, 0, 0, 0, 0, 0, 0, 0, 0, 0, 0]"] ;
466 -> 476 ;
477 [label="X[1] <= 3.5\ngini = 0.795\nsamples = 38\nvalue = [0, 10, 2, 5, 0, 0, 0, 0, 0, 10, 1, 0, 0, 8\n0, 0, 1, 0, 0, 0, 1, 0, 0, 0, 0, 0, 0]"] ;
409 -> 477 ;
478 [label="X[2] <= 4.5\ngini = 0.795\nsamples = 33\nvalue = [0, 10, 2, 4, 0, 0, 0, 0, 0, 6, 1, 0, 0, 8\n0, 0, 1, 0, 0, 0, 1, 0, 0, 0, 0, 0, 0]"] ;
477 -> 478 ;
479 [label="X[3] <= 1.5\ngini = 0.778\nsamples = 28\nvalue = [0, 8, 2, 2, 0, 0, 0, 0, 0, 6, 1, 0, 0, 8\n0, 0, 0, 0, 0, 0, 1, 0, 0, 0, 0, 0, 0]"] ;
478 -> 479 ;
480 [label="X[0] <= 5.0\ngini = 0.56\nsamples = 5\nvalue = [0, 3, 0, 0, 0, 0, 0, 0, 0, 0, 1, 0, 0, 1\n0, 0, 0, 0, 0, 0, 0, 0, 0, 0, 0, 0, 0]"] ;
479 -> 480 ;
481 [label="gini = 0.625\nsamples = 4\nvalue = [0, 2, 0, 0, 0, 0, 0, 0, 0, 0, 1, 0, 0, 1\n0, 0, 0, 0, 0, 0, 0, 0, 0, 0, 0, 0, 0]"] ;
480 -> 481 ;
482 [label="gini = 0.0\nsamples = 1\nvalue = [0, 1, 0, 0, 0, 0, 0, 0, 0, 0, 0, 0, 0, 0\n0, 0, 0, 0, 0, 0, 0, 0, 0, 0, 0, 0, 0]"] ;
480 -> 482 ;
483 [label="X[1] <= 2.5\ngini = 0.775\nsamples = 23\nvalue = [0, 5, 2, 2, 0, 0, 0, 0, 0, 6, 0, 0, 0, 7\n0, 0, 0, 0, 0, 0, 1, 0, 0, 0, 0, 0, 0]"] ;
479 -> 483 ;
484 [label="X[0] <= 4.5\ngini = 0.734\nsamples = 13\nvalue = [0, 3, 0, 1, 0, 0, 0, 0, 0, 5, 0, 0, 0, 3\n0, 0, 0, 0, 0, 0, 1, 0, 0, 0, 0, 0, 0]"] ;
483 -> 484 ;
485 [label="X[2] <= 2.5\ngini = 0.722\nsamples = 6\nvalue = [0, 2, 0, 1, 0, 0, 0, 0, 0, 1, 0, 0, 0, 2\n0, 0, 0, 0, 0, 0, 0, 0, 0, 0, 0, 0, 0]"] ;
484 -> 485 ;
486 [label="gini = 0.5\nsamples = 2\nvalue = [0, 1, 0, 0, 0, 0, 0, 0, 0, 0, 0, 0, 0, 1\n0, 0, 0, 0, 0, 0, 0, 0, 0, 0, 0, 0, 0]"] ;
485 -> 486 ;
487 [label="gini = 0.75\nsamples = 4\nvalue = [0, 1, 0, 1, 0, 0, 0, 0, 0, 1, 0, 0, 0, 1\n0, 0, 0, 0, 0, 0, 0, 0, 0, 0, 0, 0, 0]"] ;
485 -> 487 ;
488 [label="X[0] <= 5.5\ngini = 0.612\nsamples = 7\nvalue = [0, 1, 0, 0, 0, 0, 0, 0, 0, 4, 0, 0, 0, 1\n0, 0, 0, 0, 0, 0, 1, 0, 0, 0, 0, 0, 0]"] ;
484 -> 488 ;
489 [label="X[2] <= 3.5\ngini = 0.56\nsamples = 5\nvalue = [0, 0, 0, 0, 0, 0, 0, 0, 0, 3, 0, 0, 0, 1\n0, 0, 0, 0, 0, 0, 1, 0, 0, 0, 0, 0, 0]"] ;
488 -> 489 ;
490 [label="gini = 0.444\nsamples = 3\nvalue = [0, 0, 0, 0, 0, 0, 0, 0, 0, 2, 0, 0, 0, 1\n0, 0, 0, 0, 0, 0, 0, 0, 0, 0, 0, 0, 0]"] ;
489 -> 490 ;
491 [label="gini = 0.5\nsamples = 2\nvalue = [0, 0, 0, 0, 0, 0, 0, 0, 0, 1, 0, 0, 0, 0\n0, 0, 0, 0, 0, 0, 1, 0, 0, 0, 0, 0, 0]"] ;
489 -> 491 ;
492 [label="X[0] <= 6.5\ngini = 0.5\nsamples = 2\nvalue = [0, 1, 0, 0, 0, 0, 0, 0, 0, 1, 0, 0, 0, 0\n0, 0, 0, 0, 0, 0, 0, 0, 0, 0, 0, 0, 0]"] ;
488 -> 492 ;
493 [label="gini = 0.0\nsamples = 1\nvalue = [0, 1, 0, 0, 0, 0, 0, 0, 0, 0, 0, 0, 0, 0\n0, 0, 0, 0, 0, 0, 0, 0, 0, 0, 0, 0, 0]"] ;
492 -> 493 ;
494 [label="gini = 0.0\nsamples = 1\nvalue = [0, 0, 0, 0, 0, 0, 0, 0, 0, 1, 0, 0, 0, 0\n0, 0, 0, 0, 0, 0, 0, 0, 0, 0, 0, 0, 0]"] ;
492 -> 494 ;
495 [label="X[0] <= 4.5\ngini = 0.74\nsamples = 10\nvalue = [0, 2, 2, 1, 0, 0, 0, 0, 0, 1, 0, 0, 0, 4\n0, 0, 0, 0, 0, 0, 0, 0, 0, 0, 0, 0, 0]"] ;
483 -> 495 ;
496 [label="X[2] <= 3.5\ngini = 0.667\nsamples = 6\nvalue = [0, 0, 1, 1, 0, 0, 0, 0, 0, 1, 0, 0, 0, 3\n0, 0, 0, 0, 0, 0, 0, 0, 0, 0, 0, 0, 0]"] ;
495 -> 496 ;
497 [label="X[3] <= 2.5\ngini = 0.625\nsamples = 4\nvalue = [0, 0, 1, 0, 0, 0, 0, 0, 0, 1, 0, 0, 0, 2\n0, 0, 0, 0, 0, 0, 0, 0, 0, 0, 0, 0, 0]"] ;
496 -> 497 ;
498 [label="gini = 0.0\nsamples = 1\nvalue = [0, 0, 0, 0, 0, 0, 0, 0, 0, 0, 0, 0, 0, 1\n0, 0, 0, 0, 0, 0, 0, 0, 0, 0, 0, 0, 0]"] ;
497 -> 498 ;
499 [label="X[2] <= 2.5\ngini = 0.667\nsamples = 3\nvalue = [0, 0, 1, 0, 0, 0, 0, 0, 0, 1, 0, 0, 0, 1\n0, 0, 0, 0, 0, 0, 0, 0, 0, 0, 0, 0, 0]"] ;
497 -> 499 ;
500 [label="gini = 0.0\nsamples = 1\nvalue = [0, 0, 0, 0, 0, 0, 0, 0, 0, 0, 0, 0, 0, 1\n0, 0, 0, 0, 0, 0, 0, 0, 0, 0, 0, 0, 0]"] ;
499 -> 500 ;
501 [label="gini = 0.5\nsamples = 2\nvalue = [0, 0, 1, 0, 0, 0, 0, 0, 0, 1, 0, 0, 0, 0\n0, 0, 0, 0, 0, 0, 0, 0, 0, 0, 0, 0, 0]"] ;
499 -> 501 ;
502 [label="gini = 0.5\nsamples = 2\nvalue = [0, 0, 0, 1, 0, 0, 0, 0, 0, 0, 0, 0, 0, 1\n0, 0, 0, 0, 0, 0, 0, 0, 0, 0, 0, 0, 0]"] ;
496 -> 502 ;
503 [label="X[0] <= 6.0\ngini = 0.625\nsamples = 4\nvalue = [0, 2, 1, 0, 0, 0, 0, 0, 0, 0, 0, 0, 0, 1\n0, 0, 0, 0, 0, 0, 0, 0, 0, 0, 0, 0, 0]"] ;
495 -> 503 ;
504 [label="X[3] <= 2.5\ngini = 0.444\nsamples = 3\nvalue = [0, 2, 1, 0, 0, 0, 0, 0, 0, 0, 0, 0, 0, 0\n0, 0, 0, 0, 0, 0, 0, 0, 0, 0, 0, 0, 0]"] ;
503 -> 504 ;
505 [label="gini = 0.0\nsamples = 1\nvalue = [0, 0, 1, 0, 0, 0, 0, 0, 0, 0, 0, 0, 0, 0\n0, 0, 0, 0, 0, 0, 0, 0, 0, 0, 0, 0, 0]"] ;
504 -> 505 ;
506 [label="gini = 0.0\nsamples = 2\nvalue = [0, 2, 0, 0, 0, 0, 0, 0, 0, 0, 0, 0, 0, 0\n0, 0, 0, 0, 0, 0, 0, 0, 0, 0, 0, 0, 0]"] ;
504 -> 506 ;
507 [label="gini = 0.0\nsamples = 1\nvalue = [0, 0, 0, 0, 0, 0, 0, 0, 0, 0, 0, 0, 0, 1\n0, 0, 0, 0, 0, 0, 0, 0, 0, 0, 0, 0, 0]"] ;
503 -> 507 ;
508 [label="X[0] <= 6.0\ngini = 0.64\nsamples = 5\nvalue = [0, 2, 0, 2, 0, 0, 0, 0, 0, 0, 0, 0, 0, 0\n0, 0, 1, 0, 0, 0, 0, 0, 0, 0, 0, 0, 0]"] ;
478 -> 508 ;
509 [label="gini = 0.0\nsamples = 2\nvalue = [0, 2, 0, 0, 0, 0, 0, 0, 0, 0, 0, 0, 0, 0\n0, 0, 0, 0, 0, 0, 0, 0, 0, 0, 0, 0, 0]"] ;
508 -> 509 ;
510 [label="X[2] <= 5.5\ngini = 0.444\nsamples = 3\nvalue = [0, 0, 0, 2, 0, 0, 0, 0, 0, 0, 0, 0, 0, 0\n0, 0, 1, 0, 0, 0, 0, 0, 0, 0, 0, 0, 0]"] ;
508 -> 510 ;
511 [label="gini = 0.5\nsamples = 2\nvalue = [0, 0, 0, 1, 0, 0, 0, 0, 0, 0, 0, 0, 0, 0\n0, 0, 1, 0, 0, 0, 0, 0, 0, 0, 0, 0, 0]"] ;
510 -> 511 ;
512 [label="gini = 0.0\nsamples = 1\nvalue = [0, 0, 0, 1, 0, 0, 0, 0, 0, 0, 0, 0, 0, 0\n0, 0, 0, 0, 0, 0, 0, 0, 0, 0, 0, 0, 0]"] ;
510 -> 512 ;
513 [label="X[0] <= 5.5\ngini = 0.32\nsamples = 5\nvalue = [0, 0, 0, 1, 0, 0, 0, 0, 0, 4, 0, 0, 0, 0\n0, 0, 0, 0, 0, 0, 0, 0, 0, 0, 0, 0, 0]"] ;
477 -> 513 ;
514 [label="gini = 0.0\nsamples = 4\nvalue = [0, 0, 0, 0, 0, 0, 0, 0, 0, 4, 0, 0, 0, 0\n0, 0, 0, 0, 0, 0, 0, 0, 0, 0, 0, 0, 0]"] ;
513 -> 514 ;
515 [label="gini = 0.0\nsamples = 1\nvalue = [0, 0, 0, 1, 0, 0, 0, 0, 0, 0, 0, 0, 0, 0\n0, 0, 0, 0, 0, 0, 0, 0, 0, 0, 0, 0, 0]"] ;
513 -> 515 ;
516 [label="X[0] <= 7.5\ngini = 0.505\nsamples = 282\nvalue = [0, 49, 4, 29, 0, 0, 0, 0, 0, 3, 2, 0, 0, 190\n0, 0, 1, 0, 0, 0, 1, 0, 0, 1, 0, 0, 2]"] ;
354 -> 516 ;
517 [label="X[0] <= 4.5\ngini = 0.537\nsamples = 238\nvalue = [0, 45, 4, 28, 0, 0, 0, 0, 0, 3, 2, 0, 0, 153\n0, 0, 0, 0, 0, 0, 1, 0, 0, 1, 0, 0, 1]"] ;
516 -> 517 ;
518 [label="X[2] <= 3.5\ngini = 0.578\nsamples = 92\nvalue = [0, 23, 3, 11, 0, 0, 0, 0, 0, 1, 0, 0, 0, 54\n0, 0, 0, 0, 0, 0, 0, 0, 0, 0, 0, 0, 0]"] ;
517 -> 518 ;
519 [label="X[1] <= 2.5\ngini = 0.526\nsamples = 70\nvalue = [0, 16, 2, 6, 0, 0, 0, 0, 0, 1, 0, 0, 0, 45\n0, 0, 0, 0, 0, 0, 0, 0, 0, 0, 0, 0, 0]"] ;
518 -> 519 ;
520 [label="X[0] <= 3.5\ngini = 0.513\nsamples = 69\nvalue = [0, 16, 1, 6, 0, 0, 0, 0, 0, 1, 0, 0, 0, 45\n0, 0, 0, 0, 0, 0, 0, 0, 0, 0, 0, 0, 0]"] ;
519 -> 520 ;
521 [label="X[2] <= 2.5\ngini = 0.574\nsamples = 43\nvalue = [0, 12, 1, 4, 0, 0, 0, 0, 0, 1, 0, 0, 0, 25\n0, 0, 0, 0, 0, 0, 0, 0, 0, 0, 0, 0, 0]"] ;
520 -> 521 ;
522 [label="X[0] <= 2.5\ngini = 0.534\nsamples = 25\nvalue = [0, 8, 1, 0, 0, 0, 0, 0, 0, 1, 0, 0, 0, 15\n0, 0, 0, 0, 0, 0, 0, 0, 0, 0, 0, 0, 0]"] ;
521 -> 522 ;
523 [label="gini = 0.64\nsamples = 10\nvalue = [0, 3, 1, 0, 0, 0, 0, 0, 0, 1, 0, 0, 0, 5\n0, 0, 0, 0, 0, 0, 0, 0, 0, 0, 0, 0, 0]"] ;
522 -> 523 ;
524 [label="gini = 0.444\nsamples = 15\nvalue = [0, 5, 0, 0, 0, 0, 0, 0, 0, 0, 0, 0, 0, 10\n0, 0, 0, 0, 0, 0, 0, 0, 0, 0, 0, 0, 0]"] ;
522 -> 524 ;
525 [label="X[1] <= 1.5\ngini = 0.593\nsamples = 18\nvalue = [0, 4, 0, 4, 0, 0, 0, 0, 0, 0, 0, 0, 0, 10\n0, 0, 0, 0, 0, 0, 0, 0, 0, 0, 0, 0, 0]"] ;
521 -> 525 ;
526 [label="gini = 0.609\nsamples = 17\nvalue = [0, 4, 0, 4, 0, 0, 0, 0, 0, 0, 0, 0, 0, 9\n0, 0, 0, 0, 0, 0, 0, 0, 0, 0, 0, 0, 0]"] ;
525 -> 526 ;
527 [label="gini = 0.0\nsamples = 1\nvalue = [0, 0, 0, 0, 0, 0, 0, 0, 0, 0, 0, 0, 0, 1\n0, 0, 0, 0, 0, 0, 0, 0, 0, 0, 0, 0, 0]"] ;
525 -> 527 ;
528 [label="X[2] <= 2.5\ngini = 0.379\nsamples = 26\nvalue = [0, 4, 0, 2, 0, 0, 0, 0, 0, 0, 0, 0, 0, 20\n0, 0, 0, 0, 0, 0, 0, 0, 0, 0, 0, 0, 0]"] ;
520 -> 528 ;
529 [label="gini = 0.375\nsamples = 4\nvalue = [0, 0, 0, 1, 0, 0, 0, 0, 0, 0, 0, 0, 0, 3\n0, 0, 0, 0, 0, 0, 0, 0, 0, 0, 0, 0, 0]"] ;
528 -> 529 ;
530 [label="gini = 0.368\nsamples = 22\nvalue = [0, 4, 0, 1, 0, 0, 0, 0, 0, 0, 0, 0, 0, 17\n0, 0, 0, 0, 0, 0, 0, 0, 0, 0, 0, 0, 0]"] ;
528 -> 530 ;
531 [label="gini = 0.0\nsamples = 1\nvalue = [0, 0, 1, 0, 0, 0, 0, 0, 0, 0, 0, 0, 0, 0\n0, 0, 0, 0, 0, 0, 0, 0, 0, 0, 0, 0, 0]"] ;
519 -> 531 ;
532 [label="gini = 0.678\nsamples = 22\nvalue = [0, 7, 1, 5, 0, 0, 0, 0, 0, 0, 0, 0, 0, 9\n0, 0, 0, 0, 0, 0, 0, 0, 0, 0, 0, 0, 0]"] ;
518 -> 532 ;
533 [label="X[2] <= 2.5\ngini = 0.503\nsamples = 146\nvalue = [0, 22, 1, 17, 0, 0, 0, 0, 0, 2, 2, 0, 0, 99\n0, 0, 0, 0, 0, 0, 1, 0, 0, 1, 0, 0, 1]"] ;
517 -> 533 ;
534 [label="gini = 0.0\nsamples = 1\nvalue = [0, 1, 0, 0, 0, 0, 0, 0, 0, 0, 0, 0, 0, 0\n0, 0, 0, 0, 0, 0, 0, 0, 0, 0, 0, 0, 0]"] ;
533 -> 534 ;
535 [label="X[2] <= 3.5\ngini = 0.499\nsamples = 145\nvalue = [0, 21, 1, 17, 0, 0, 0, 0, 0, 2, 2, 0, 0, 99\n0, 0, 0, 0, 0, 0, 1, 0, 0, 1, 0, 0, 1]"] ;
533 -> 535 ;
536 [label="X[0] <= 6.5\ngini = 0.335\nsamples = 20\nvalue = [0, 0, 0, 3, 0, 0, 0, 0, 0, 0, 1, 0, 0, 16\n0, 0, 0, 0, 0, 0, 0, 0, 0, 0, 0, 0, 0]"] ;
535 -> 536 ;
537 [label="X[0] <= 5.5\ngini = 0.364\nsamples = 18\nvalue = [0, 0, 0, 3, 0, 0, 0, 0, 0, 0, 1, 0, 0, 14\n0, 0, 0, 0, 0, 0, 0, 0, 0, 0, 0, 0, 0]"] ;
536 -> 537 ;
538 [label="gini = 0.298\nsamples = 11\nvalue = [0, 0, 0, 2, 0, 0, 0, 0, 0, 0, 0, 0, 0, 9\n0, 0, 0, 0, 0, 0, 0, 0, 0, 0, 0, 0, 0]"] ;
537 -> 538 ;
539 [label="gini = 0.449\nsamples = 7\nvalue = [0, 0, 0, 1, 0, 0, 0, 0, 0, 0, 1, 0, 0, 5\n0, 0, 0, 0, 0, 0, 0, 0, 0, 0, 0, 0, 0]"] ;
537 -> 539 ;
540 [label="gini = 0.0\nsamples = 2\nvalue = [0, 0, 0, 0, 0, 0, 0, 0, 0, 0, 0, 0, 0, 2\n0, 0, 0, 0, 0, 0, 0, 0, 0, 0, 0, 0, 0]"] ;
536 -> 540 ;
541 [label="X[2] <= 5.5\ngini = 0.518\nsamples = 125\nvalue = [0, 21, 1, 14, 0, 0, 0, 0, 0, 2, 1, 0, 0, 83\n0, 0, 0, 0, 0, 0, 1, 0, 0, 1, 0, 0, 1]"] ;
535 -> 541 ;
542 [label="X[0] <= 6.5\ngini = 0.53\nsamples = 121\nvalue = [0, 21, 1, 14, 0, 0, 0, 0, 0, 2, 1, 0, 0, 79\n0, 0, 0, 0, 0, 0, 1, 0, 0, 1, 0, 0, 1]"] ;
541 -> 542 ;
543 [label="X[0] <= 5.5\ngini = 0.491\nsamples = 89\nvalue = [0, 15, 1, 9, 0, 0, 0, 0, 0, 0, 0, 0, 0, 61\n0, 0, 0, 0, 0, 0, 1, 0, 0, 1, 0, 0, 1]"] ;
542 -> 543 ;
544 [label="X[3] <= 1.5\ngini = 0.568\nsamples = 41\nvalue = [0, 8, 0, 6, 0, 0, 0, 0, 0, 0, 0, 0, 0, 25\n0, 0, 0, 0, 0, 0, 1, 0, 0, 0, 0, 0, 1]"] ;
543 -> 544 ;
545 [label="X[2] <= 4.5\ngini = 0.552\nsamples = 40\nvalue = [0, 8, 0, 5, 0, 0, 0, 0, 0, 0, 0, 0, 0, 25\n0, 0, 0, 0, 0, 0, 1, 0, 0, 0, 0, 0, 1]"] ;
544 -> 545 ;
546 [label="gini = 0.628\nsamples = 28\nvalue = [0, 7, 0, 4, 0, 0, 0, 0, 0, 0, 0, 0, 0, 15\n0, 0, 0, 0, 0, 0, 1, 0, 0, 0, 0, 0, 1]"] ;
545 -> 546 ;
547 [label="gini = 0.292\nsamples = 12\nvalue = [0, 1, 0, 1, 0, 0, 0, 0, 0, 0, 0, 0, 0, 10\n0, 0, 0, 0, 0, 0, 0, 0, 0, 0, 0, 0, 0]"] ;
545 -> 547 ;
548 [label="gini = 0.0\nsamples = 1\nvalue = [0, 0, 0, 1, 0, 0, 0, 0, 0, 0, 0, 0, 0, 0\n0, 0, 0, 0, 0, 0, 0, 0, 0, 0, 0, 0, 0]"] ;
544 -> 548 ;
549 [label="X[3] <= 2.0\ngini = 0.411\nsamples = 48\nvalue = [0, 7, 1, 3, 0, 0, 0, 0, 0, 0, 0, 0, 0, 36\n0, 0, 0, 0, 0, 0, 0, 0, 0, 1, 0, 0, 0]"] ;
543 -> 549 ;
550 [label="X[2] <= 4.5\ngini = 0.425\nsamples = 46\nvalue = [0, 7, 1, 3, 0, 0, 0, 0, 0, 0, 0, 0, 0, 34\n0, 0, 0, 0, 0, 0, 0, 0, 0, 1, 0, 0, 0]"] ;
549 -> 550 ;
551 [label="gini = 0.399\nsamples = 33\nvalue = [0, 5, 0, 2, 0, 0, 0, 0, 0, 0, 0, 0, 0, 25\n0, 0, 0, 0, 0, 0, 0, 0, 0, 1, 0, 0, 0]"] ;
550 -> 551 ;
552 [label="gini = 0.485\nsamples = 13\nvalue = [0, 2, 1, 1, 0, 0, 0, 0, 0, 0, 0, 0, 0, 9\n0, 0, 0, 0, 0, 0, 0, 0, 0, 0, 0, 0, 0]"] ;
550 -> 552 ;
553 [label="gini = 0.0\nsamples = 2\nvalue = [0, 0, 0, 0, 0, 0, 0, 0, 0, 0, 0, 0, 0, 2\n0, 0, 0, 0, 0, 0, 0, 0, 0, 0, 0, 0, 0]"] ;
549 -> 553 ;
554 [label="X[2] <= 4.5\ngini = 0.619\nsamples = 32\nvalue = [0, 6, 0, 5, 0, 0, 0, 0, 0, 2, 1, 0, 0, 18\n0, 0, 0, 0, 0, 0, 0, 0, 0, 0, 0, 0, 0]"] ;
542 -> 554 ;
555 [label="gini = 0.64\nsamples = 15\nvalue = [0, 3, 0, 2, 0, 0, 0, 0, 0, 2, 0, 0, 0, 8\n0, 0, 0, 0, 0, 0, 0, 0, 0, 0, 0, 0, 0]"] ;
554 -> 555 ;
556 [label="gini = 0.588\nsamples = 17\nvalue = [0, 3, 0, 3, 0, 0, 0, 0, 0, 0, 1, 0, 0, 10\n0, 0, 0, 0, 0, 0, 0, 0, 0, 0, 0, 0, 0]"] ;
554 -> 556 ;
557 [label="gini = 0.0\nsamples = 4\nvalue = [0, 0, 0, 0, 0, 0, 0, 0, 0, 0, 0, 0, 0, 4\n0, 0, 0, 0, 0, 0, 0, 0, 0, 0, 0, 0, 0]"] ;
541 -> 557 ;
558 [label="X[3] <= 2.0\ngini = 0.283\nsamples = 44\nvalue = [0, 4, 0, 1, 0, 0, 0, 0, 0, 0, 0, 0, 0, 37\n0, 0, 1, 0, 0, 0, 0, 0, 0, 0, 0, 0, 1]"] ;
516 -> 558 ;
559 [label="X[2] <= 3.5\ngini = 0.255\nsamples = 42\nvalue = [0, 4, 0, 1, 0, 0, 0, 0, 0, 0, 0, 0, 0, 36\n0, 0, 0, 0, 0, 0, 0, 0, 0, 0, 0, 0, 1]"] ;
558 -> 559 ;
560 [label="gini = 0.5\nsamples = 2\nvalue = [0, 1, 0, 0, 0, 0, 0, 0, 0, 0, 0, 0, 0, 1\n0, 0, 0, 0, 0, 0, 0, 0, 0, 0, 0, 0, 0]"] ;
559 -> 560 ;
561 [label="X[0] <= 8.5\ngini = 0.228\nsamples = 40\nvalue = [0, 3, 0, 1, 0, 0, 0, 0, 0, 0, 0, 0, 0, 35\n0, 0, 0, 0, 0, 0, 0, 0, 0, 0, 0, 0, 1]"] ;
559 -> 561 ;
562 [label="gini = 0.0\nsamples = 17\nvalue = [0, 0, 0, 0, 0, 0, 0, 0, 0, 0, 0, 0, 0, 17\n0, 0, 0, 0, 0, 0, 0, 0, 0, 0, 0, 0, 0]"] ;
561 -> 562 ;
563 [label="X[0] <= 11.5\ngini = 0.367\nsamples = 23\nvalue = [0, 3, 0, 1, 0, 0, 0, 0, 0, 0, 0, 0, 0, 18\n0, 0, 0, 0, 0, 0, 0, 0, 0, 0, 0, 0, 1]"] ;
561 -> 563 ;
564 [label="X[0] <= 9.5\ngini = 0.427\nsamples = 19\nvalue = [0, 3, 0, 1, 0, 0, 0, 0, 0, 0, 0, 0, 0, 14\n0, 0, 0, 0, 0, 0, 0, 0, 0, 0, 0, 0, 1]"] ;
563 -> 564 ;
565 [label="X[2] <= 4.5\ngini = 0.379\nsamples = 13\nvalue = [0, 2, 0, 0, 0, 0, 0, 0, 0, 0, 0, 0, 0, 10\n0, 0, 0, 0, 0, 0, 0, 0, 0, 0, 0, 0, 1]"] ;
564 -> 565 ;
566 [label="gini = 0.278\nsamples = 6\nvalue = [0, 1, 0, 0, 0, 0, 0, 0, 0, 0, 0, 0, 0, 5\n0, 0, 0, 0, 0, 0, 0, 0, 0, 0, 0, 0, 0]"] ;
565 -> 566 ;
567 [label="X[2] <= 5.5\ngini = 0.449\nsamples = 7\nvalue = [0, 1, 0, 0, 0, 0, 0, 0, 0, 0, 0, 0, 0, 5\n0, 0, 0, 0, 0, 0, 0, 0, 0, 0, 0, 0, 1]"] ;
565 -> 567 ;
568 [label="gini = 0.5\nsamples = 6\nvalue = [0, 1, 0, 0, 0, 0, 0, 0, 0, 0, 0, 0, 0, 4\n0, 0, 0, 0, 0, 0, 0, 0, 0, 0, 0, 0, 1]"] ;
567 -> 568 ;
569 [label="gini = 0.0\nsamples = 1\nvalue = [0, 0, 0, 0, 0, 0, 0, 0, 0, 0, 0, 0, 0, 1\n0, 0, 0, 0, 0, 0, 0, 0, 0, 0, 0, 0, 0]"] ;
567 -> 569 ;
570 [label="X[0] <= 10.5\ngini = 0.5\nsamples = 6\nvalue = [0, 1, 0, 1, 0, 0, 0, 0, 0, 0, 0, 0, 0, 4\n0, 0, 0, 0, 0, 0, 0, 0, 0, 0, 0, 0, 0]"] ;
564 -> 570 ;
571 [label="gini = 0.0\nsamples = 1\nvalue = [0, 0, 0, 1, 0, 0, 0, 0, 0, 0, 0, 0, 0, 0\n0, 0, 0, 0, 0, 0, 0, 0, 0, 0, 0, 0, 0]"] ;
570 -> 571 ;
572 [label="X[2] <= 5.5\ngini = 0.32\nsamples = 5\nvalue = [0, 1, 0, 0, 0, 0, 0, 0, 0, 0, 0, 0, 0, 4\n0, 0, 0, 0, 0, 0, 0, 0, 0, 0, 0, 0, 0]"] ;
570 -> 572 ;
573 [label="gini = 0.0\nsamples = 1\nvalue = [0, 0, 0, 0, 0, 0, 0, 0, 0, 0, 0, 0, 0, 1\n0, 0, 0, 0, 0, 0, 0, 0, 0, 0, 0, 0, 0]"] ;
572 -> 573 ;
574 [label="gini = 0.375\nsamples = 4\nvalue = [0, 1, 0, 0, 0, 0, 0, 0, 0, 0, 0, 0, 0, 3\n0, 0, 0, 0, 0, 0, 0, 0, 0, 0, 0, 0, 0]"] ;
572 -> 574 ;
575 [label="gini = 0.0\nsamples = 4\nvalue = [0, 0, 0, 0, 0, 0, 0, 0, 0, 0, 0, 0, 0, 4\n0, 0, 0, 0, 0, 0, 0, 0, 0, 0, 0, 0, 0]"] ;
563 -> 575 ;
576 [label="X[2] <= 4.5\ngini = 0.5\nsamples = 2\nvalue = [0, 0, 0, 0, 0, 0, 0, 0, 0, 0, 0, 0, 0, 1\n0, 0, 1, 0, 0, 0, 0, 0, 0, 0, 0, 0, 0]"] ;
558 -> 576 ;
577 [label="gini = 0.0\nsamples = 1\nvalue = [0, 0, 0, 0, 0, 0, 0, 0, 0, 0, 0, 0, 0, 1\n0, 0, 0, 0, 0, 0, 0, 0, 0, 0, 0, 0, 0]"] ;
576 -> 577 ;
578 [label="gini = 0.0\nsamples = 1\nvalue = [0, 0, 0, 0, 0, 0, 0, 0, 0, 0, 0, 0, 0, 0\n0, 0, 1, 0, 0, 0, 0, 0, 0, 0, 0, 0, 0]"] ;
576 -> 578 ;
579 [label="X[24] <= 0.5\ngini = 0.184\nsamples = 266\nvalue = [0, 5, 0, 3, 0, 0, 0, 0, 0, 240, 0, 0, 0, 9\n0, 5, 3, 0, 0, 0, 0, 0, 0, 0, 0, 1, 0]"] ;
1 -> 579 ;
580 [label="X[0] <= 2.5\ngini = 0.165\nsamples = 263\nvalue = [0, 5, 0, 2, 0, 0, 0, 0, 0, 240, 0, 0, 0, 9\n0, 3, 3, 0, 0, 0, 0, 0, 0, 0, 0, 1, 0]"] ;
579 -> 580 ;
581 [label="X[1] <= 2.5\ngini = 0.42\nsamples = 48\nvalue = [0, 3, 0, 2, 0, 0, 0, 0, 0, 36, 0, 0, 0, 5\n0, 1, 1, 0, 0, 0, 0, 0, 0, 0, 0, 0, 0]"] ;
580 -> 581 ;
582 [label="X[0] <= 1.5\ngini = 0.399\nsamples = 47\nvalue = [0, 3, 0, 2, 0, 0, 0, 0, 0, 36, 0, 0, 0, 4\n0, 1, 1, 0, 0, 0, 0, 0, 0, 0, 0, 0, 0]"] ;
581 -> 582 ;
583 [label="X[2] <= 0.5\ngini = 0.611\nsamples = 6\nvalue = [0, 1, 0, 0, 0, 0, 0, 0, 0, 3, 0, 0, 0, 2\n0, 0, 0, 0, 0, 0, 0, 0, 0, 0, 0, 0, 0]"] ;
582 -> 583 ;
584 [label="gini = 0.0\nsamples = 1\nvalue = [0, 0, 0, 0, 0, 0, 0, 0, 0, 1, 0, 0, 0, 0\n0, 0, 0, 0, 0, 0, 0, 0, 0, 0, 0, 0, 0]"] ;
583 -> 584 ;
585 [label="gini = 0.64\nsamples = 5\nvalue = [0, 1, 0, 0, 0, 0, 0, 0, 0, 2, 0, 0, 0, 2\n0, 0, 0, 0, 0, 0, 0, 0, 0, 0, 0, 0, 0]"] ;
583 -> 585 ;
586 [label="X[2] <= 1.5\ngini = 0.344\nsamples = 41\nvalue = [0, 2, 0, 2, 0, 0, 0, 0, 0, 33, 0, 0, 0, 2\n0, 1, 1, 0, 0, 0, 0, 0, 0, 0, 0, 0, 0]"] ;
582 -> 586 ;
587 [label="gini = 0.406\nsamples = 8\nvalue = [0, 0, 0, 0, 0, 0, 0, 0, 0, 6, 0, 0, 0, 1\n0, 0, 1, 0, 0, 0, 0, 0, 0, 0, 0, 0, 0]"] ;
586 -> 587 ;
588 [label="X[3] <= 1.5\ngini = 0.321\nsamples = 33\nvalue = [0, 2, 0, 2, 0, 0, 0, 0, 0, 27, 0, 0, 0, 1\n0, 1, 0, 0, 0, 0, 0, 0, 0, 0, 0, 0, 0]"] ;
586 -> 588 ;
589 [label="X[3] <= 0.5\ngini = 0.349\nsamples = 30\nvalue = [0, 2, 0, 2, 0, 0, 0, 0, 0, 24, 0, 0, 0, 1\n0, 1, 0, 0, 0, 0, 0, 0, 0, 0, 0, 0, 0]"] ;
588 -> 589 ;
590 [label="gini = 0.0\nsamples = 1\nvalue = [0, 0, 0, 0, 0, 0, 0, 0, 0, 1, 0, 0, 0, 0\n0, 0, 0, 0, 0, 0, 0, 0, 0, 0, 0, 0, 0]"] ;
589 -> 590 ;
591 [label="gini = 0.359\nsamples = 29\nvalue = [0, 2, 0, 2, 0, 0, 0, 0, 0, 23, 0, 0, 0, 1\n0, 1, 0, 0, 0, 0, 0, 0, 0, 0, 0, 0, 0]"] ;
589 -> 591 ;
592 [label="gini = 0.0\nsamples = 3\nvalue = [0, 0, 0, 0, 0, 0, 0, 0, 0, 3, 0, 0, 0, 0\n0, 0, 0, 0, 0, 0, 0, 0, 0, 0, 0, 0, 0]"] ;
588 -> 592 ;
593 [label="gini = 0.0\nsamples = 1\nvalue = [0, 0, 0, 0, 0, 0, 0, 0, 0, 0, 0, 0, 0, 1\n0, 0, 0, 0, 0, 0, 0, 0, 0, 0, 0, 0, 0]"] ;
581 -> 593 ;
594 [label="X[0] <= 10.0\ngini = 0.099\nsamples = 215\nvalue = [0, 2, 0, 0, 0, 0, 0, 0, 0, 204, 0, 0, 0, 4\n0, 2, 2, 0, 0, 0, 0, 0, 0, 0, 0, 1, 0]"] ;
580 -> 594 ;
595 [label="X[2] <= 3.5\ngini = 0.091\nsamples = 214\nvalue = [0, 1, 0, 0, 0, 0, 0, 0, 0, 204, 0, 0, 0, 4\n0, 2, 2, 0, 0, 0, 0, 0, 0, 0, 0, 1, 0]"] ;
594 -> 595 ;
596 [label="X[2] <= 2.5\ngini = 0.034\nsamples = 175\nvalue = [0, 0, 0, 0, 0, 0, 0, 0, 0, 172, 0, 0, 0, 1\n0, 0, 2, 0, 0, 0, 0, 0, 0, 0, 0, 0, 0]"] ;
595 -> 596 ;
597 [label="X[0] <= 3.5\ngini = 0.016\nsamples = 125\nvalue = [0, 0, 0, 0, 0, 0, 0, 0, 0, 124, 0, 0, 0, 0\n0, 0, 1, 0, 0, 0, 0, 0, 0, 0, 0, 0, 0]"] ;
596 -> 597 ;
598 [label="X[3] <= 1.5\ngini = 0.02\nsamples = 98\nvalue = [0, 0, 0, 0, 0, 0, 0, 0, 0, 97, 0, 0, 0, 0\n0, 0, 1, 0, 0, 0, 0, 0, 0, 0, 0, 0, 0]"] ;
597 -> 598 ;
599 [label="X[2] <= 1.5\ngini = 0.02\nsamples = 97\nvalue = [0, 0, 0, 0, 0, 0, 0, 0, 0, 96, 0, 0, 0, 0\n0, 0, 1, 0, 0, 0, 0, 0, 0, 0, 0, 0, 0]"] ;
598 -> 599 ;
600 [label="gini = 0.0\nsamples = 1\nvalue = [0, 0, 0, 0, 0, 0, 0, 0, 0, 1, 0, 0, 0, 0\n0, 0, 0, 0, 0, 0, 0, 0, 0, 0, 0, 0, 0]"] ;
599 -> 600 ;
601 [label="gini = 0.021\nsamples = 96\nvalue = [0, 0, 0, 0, 0, 0, 0, 0, 0, 95, 0, 0, 0, 0\n0, 0, 1, 0, 0, 0, 0, 0, 0, 0, 0, 0, 0]"] ;
599 -> 601 ;
602 [label="gini = 0.0\nsamples = 1\nvalue = [0, 0, 0, 0, 0, 0, 0, 0, 0, 1, 0, 0, 0, 0\n0, 0, 0, 0, 0, 0, 0, 0, 0, 0, 0, 0, 0]"] ;
598 -> 602 ;
603 [label="gini = 0.0\nsamples = 27\nvalue = [0, 0, 0, 0, 0, 0, 0, 0, 0, 27, 0, 0, 0, 0\n0, 0, 0, 0, 0, 0, 0, 0, 0, 0, 0, 0, 0]"] ;
597 -> 603 ;
604 [label="X[0] <= 3.5\ngini = 0.078\nsamples = 50\nvalue = [0, 0, 0, 0, 0, 0, 0, 0, 0, 48, 0, 0, 0, 1\n0, 0, 1, 0, 0, 0, 0, 0, 0, 0, 0, 0, 0]"] ;
596 -> 604 ;
605 [label="gini = 0.18\nsamples = 10\nvalue = [0, 0, 0, 0, 0, 0, 0, 0, 0, 9, 0, 0, 0, 0\n0, 0, 1, 0, 0, 0, 0, 0, 0, 0, 0, 0, 0]"] ;
604 -> 605 ;
606 [label="X[0] <= 4.5\ngini = 0.049\nsamples = 40\nvalue = [0, 0, 0, 0, 0, 0, 0, 0, 0, 39, 0, 0, 0, 1\n0, 0, 0, 0, 0, 0, 0, 0, 0, 0, 0, 0, 0]"] ;
604 -> 606 ;
607 [label="X[1] <= 1.5\ngini = 0.08\nsamples = 24\nvalue = [0, 0, 0, 0, 0, 0, 0, 0, 0, 23, 0, 0, 0, 1\n0, 0, 0, 0, 0, 0, 0, 0, 0, 0, 0, 0, 0]"] ;
606 -> 607 ;
608 [label="gini = 0.083\nsamples = 23\nvalue = [0, 0, 0, 0, 0, 0, 0, 0, 0, 22, 0, 0, 0, 1\n0, 0, 0, 0, 0, 0, 0, 0, 0, 0, 0, 0, 0]"] ;
607 -> 608 ;
609 [label="gini = 0.0\nsamples = 1\nvalue = [0, 0, 0, 0, 0, 0, 0, 0, 0, 1, 0, 0, 0, 0\n0, 0, 0, 0, 0, 0, 0, 0, 0, 0, 0, 0, 0]"] ;
607 -> 609 ;
610 [label="gini = 0.0\nsamples = 16\nvalue = [0, 0, 0, 0, 0, 0, 0, 0, 0, 16, 0, 0, 0, 0\n0, 0, 0, 0, 0, 0, 0, 0, 0, 0, 0, 0, 0]"] ;
606 -> 610 ;
611 [label="X[0] <= 4.5\ngini = 0.317\nsamples = 39\nvalue = [0, 1, 0, 0, 0, 0, 0, 0, 0, 32, 0, 0, 0, 3\n0, 2, 0, 0, 0, 0, 0, 0, 0, 0, 0, 1, 0]"] ;
595 -> 611 ;
612 [label="gini = 0.72\nsamples = 5\nvalue = [0, 1, 0, 0, 0, 0, 0, 0, 0, 2, 0, 0, 0, 1\n0, 1, 0, 0, 0, 0, 0, 0, 0, 0, 0, 0, 0]"] ;
611 -> 612 ;
613 [label="X[2] <= 4.5\ngini = 0.216\nsamples = 34\nvalue = [0, 0, 0, 0, 0, 0, 0, 0, 0, 30, 0, 0, 0, 2\n0, 1, 0, 0, 0, 0, 0, 0, 0, 0, 0, 1, 0]"] ;
611 -> 613 ;
614 [label="X[0] <= 5.5\ngini = 0.14\nsamples = 27\nvalue = [0, 0, 0, 0, 0, 0, 0, 0, 0, 25, 0, 0, 0, 1\n0, 0, 0, 0, 0, 0, 0, 0, 0, 0, 0, 1, 0]"] ;
613 -> 614 ;
615 [label="gini = 0.292\nsamples = 12\nvalue = [0, 0, 0, 0, 0, 0, 0, 0, 0, 10, 0, 0, 0, 1\n0, 0, 0, 0, 0, 0, 0, 0, 0, 0, 0, 1, 0]"] ;
614 -> 615 ;
616 [label="gini = 0.0\nsamples = 15\nvalue = [0, 0, 0, 0, 0, 0, 0, 0, 0, 15, 0, 0, 0, 0\n0, 0, 0, 0, 0, 0, 0, 0, 0, 0, 0, 0, 0]"] ;
614 -> 616 ;
617 [label="X[0] <= 6.5\ngini = 0.449\nsamples = 7\nvalue = [0, 0, 0, 0, 0, 0, 0, 0, 0, 5, 0, 0, 0, 1\n0, 1, 0, 0, 0, 0, 0, 0, 0, 0, 0, 0, 0]"] ;
613 -> 617 ;
618 [label="gini = 0.444\nsamples = 3\nvalue = [0, 0, 0, 0, 0, 0, 0, 0, 0, 2, 0, 0, 0, 1\n0, 0, 0, 0, 0, 0, 0, 0, 0, 0, 0, 0, 0]"] ;
617 -> 618 ;
619 [label="gini = 0.375\nsamples = 4\nvalue = [0, 0, 0, 0, 0, 0, 0, 0, 0, 3, 0, 0, 0, 0\n0, 1, 0, 0, 0, 0, 0, 0, 0, 0, 0, 0, 0]"] ;
617 -> 619 ;
620 [label="gini = 0.0\nsamples = 1\nvalue = [0, 1, 0, 0, 0, 0, 0, 0, 0, 0, 0, 0, 0, 0\n0, 0, 0, 0, 0, 0, 0, 0, 0, 0, 0, 0, 0]"] ;
594 -> 620 ;
621 [label="X[3] <= 0.5\ngini = 0.444\nsamples = 3\nvalue = [0, 0, 0, 1, 0, 0, 0, 0, 0, 0, 0, 0, 0, 0\n0, 2, 0, 0, 0, 0, 0, 0, 0, 0, 0, 0, 0]"] ;
579 -> 621 ;
622 [label="gini = 0.0\nsamples = 1\nvalue = [0, 0, 0, 1, 0, 0, 0, 0, 0, 0, 0, 0, 0, 0\n0, 0, 0, 0, 0, 0, 0, 0, 0, 0, 0, 0, 0]"] ;
621 -> 622 ;
623 [label="gini = 0.0\nsamples = 2\nvalue = [0, 0, 0, 0, 0, 0, 0, 0, 0, 0, 0, 0, 0, 0\n0, 2, 0, 0, 0, 0, 0, 0, 0, 0, 0, 0, 0]"] ;
621 -> 623 ;
624 [label="X[3] <= 0.5\ngini = 0.355\nsamples = 1384\nvalue = [1, 1086, 236, 7, 0, 8, 0, 0, 0, 5, 9, 1, 0\n18, 0, 0, 12, 0, 0, 0, 1, 0, 0, 0, 0, 0, 0]"] ;
0 -> 624 [labeldistance=2.5, labelangle=-45, headlabel="False"] ;
625 [label="X[2] <= 0.5\ngini = 0.32\nsamples = 5\nvalue = [1, 0, 0, 4, 0, 0, 0, 0, 0, 0, 0, 0, 0, 0\n0, 0, 0, 0, 0, 0, 0, 0, 0, 0, 0, 0, 0]"] ;
624 -> 625 ;
626 [label="gini = 0.0\nsamples = 1\nvalue = [1, 0, 0, 0, 0, 0, 0, 0, 0, 0, 0, 0, 0, 0\n0, 0, 0, 0, 0, 0, 0, 0, 0, 0, 0, 0, 0]"] ;
625 -> 626 ;
627 [label="gini = 0.0\nsamples = 4\nvalue = [0, 0, 0, 4, 0, 0, 0, 0, 0, 0, 0, 0, 0, 0\n0, 0, 0, 0, 0, 0, 0, 0, 0, 0, 0, 0, 0]"] ;
625 -> 627 ;
628 [label="X[1] <= 1.5\ngini = 0.35\nsamples = 1379\nvalue = [0, 1086, 236, 3, 0, 8, 0, 0, 0, 5, 9, 1, 0\n18, 0, 0, 12, 0, 0, 0, 1, 0, 0, 0, 0, 0, 0]"] ;
624 -> 628 ;
629 [label="X[2] <= 1.5\ngini = 0.336\nsamples = 1322\nvalue = [0, 1054, 223, 3, 0, 6, 0, 0, 0, 4, 9, 1, 0\n12, 0, 0, 9, 0, 0, 0, 1, 0, 0, 0, 0, 0, 0]"] ;
628 -> 629 ;
630 [label="X[2] <= 0.5\ngini = 0.254\nsamples = 372\nvalue = [0, 317, 52, 0, 0, 0, 0, 0, 0, 0, 0, 0, 0, 1\n0, 0, 2, 0, 0, 0, 0, 0, 0, 0, 0, 0, 0]"] ;
629 -> 630 ;
631 [label="gini = 0.0\nsamples = 1\nvalue = [0, 1, 0, 0, 0, 0, 0, 0, 0, 0, 0, 0, 0, 0\n0, 0, 0, 0, 0, 0, 0, 0, 0, 0, 0, 0, 0]"] ;
630 -> 631 ;
632 [label="X[0] <= 2.5\ngini = 0.255\nsamples = 371\nvalue = [0, 316, 52, 0, 0, 0, 0, 0, 0, 0, 0, 0, 0, 1\n0, 0, 2, 0, 0, 0, 0, 0, 0, 0, 0, 0, 0]"] ;
630 -> 632 ;
633 [label="X[0] <= 1.5\ngini = 0.255\nsamples = 370\nvalue = [0, 315, 52, 0, 0, 0, 0, 0, 0, 0, 0, 0, 0, 1\n0, 0, 2, 0, 0, 0, 0, 0, 0, 0, 0, 0, 0]"] ;
632 -> 633 ;
634 [label="gini = 0.258\nsamples = 326\nvalue = [0, 277, 46, 0, 0, 0, 0, 0, 0, 0, 0, 0, 0, 1\n0, 0, 2, 0, 0, 0, 0, 0, 0, 0, 0, 0, 0]"] ;
633 -> 634 ;
635 [label="gini = 0.236\nsamples = 44\nvalue = [0, 38, 6, 0, 0, 0, 0, 0, 0, 0, 0, 0, 0, 0\n0, 0, 0, 0, 0, 0, 0, 0, 0, 0, 0, 0, 0]"] ;
633 -> 635 ;
636 [label="gini = 0.0\nsamples = 1\nvalue = [0, 1, 0, 0, 0, 0, 0, 0, 0, 0, 0, 0, 0, 0\n0, 0, 0, 0, 0, 0, 0, 0, 0, 0, 0, 0, 0]"] ;
632 -> 636 ;
637 [label="X[0] <= 4.5\ngini = 0.365\nsamples = 950\nvalue = [0, 737, 171, 3, 0, 6, 0, 0, 0, 4, 9, 1, 0\n11, 0, 0, 7, 0, 0, 0, 1, 0, 0, 0, 0, 0, 0]"] ;
629 -> 637 ;
638 [label="X[22] <= 0.5\ngini = 0.38\nsamples = 760\nvalue = [0, 578, 154, 3, 0, 4, 0, 0, 0, 4, 4, 1, 0, 8\n0, 0, 4, 0, 0, 0, 0, 0, 0, 0, 0, 0, 0]"] ;
637 -> 638 ;
639 [label="X[2] <= 3.5\ngini = 0.387\nsamples = 702\nvalue = [0, 529, 148, 3, 0, 3, 0, 0, 0, 4, 4, 1, 0, 8\n0, 0, 2, 0, 0, 0, 0, 0, 0, 0, 0, 0, 0]"] ;
638 -> 639 ;
640 [label="X[0] <= 2.5\ngini = 0.389\nsamples = 651\nvalue = [0, 489, 140, 3, 0, 3, 0, 0, 0, 4, 3, 1, 0, 6\n0, 0, 2, 0, 0, 0, 0, 0, 0, 0, 0, 0, 0]"] ;
639 -> 640 ;
641 [label="gini = 0.363\nsamples = 307\nvalue = [0, 237, 62, 2, 0, 1, 0, 0, 0, 2, 0, 0, 0, 2\n0, 0, 1, 0, 0, 0, 0, 0, 0, 0, 0, 0, 0]"] ;
640 -> 641 ;
642 [label="X[2] <= 2.5\ngini = 0.412\nsamples = 344\nvalue = [0, 252, 78, 1, 0, 2, 0, 0, 0, 2, 3, 1, 0, 4\n0, 0, 1, 0, 0, 0, 0, 0, 0, 0, 0, 0, 0]"] ;
640 -> 642 ;
643 [label="X[0] <= 3.5\ngini = 0.395\nsamples = 96\nvalue = [0, 70, 26, 0, 0, 0, 0, 0, 0, 0, 0, 0, 0, 0\n0, 0, 0, 0, 0, 0, 0, 0, 0, 0, 0, 0, 0]"] ;
642 -> 643 ;
644 [label="gini = 0.405\nsamples = 85\nvalue = [0, 61, 24, 0, 0, 0, 0, 0, 0, 0, 0, 0, 0, 0\n0, 0, 0, 0, 0, 0, 0, 0, 0, 0, 0, 0, 0]"] ;
643 -> 644 ;
645 [label="gini = 0.298\nsamples = 11\nvalue = [0, 9, 2, 0, 0, 0, 0, 0, 0, 0, 0, 0, 0, 0\n0, 0, 0, 0, 0, 0, 0, 0, 0, 0, 0, 0, 0]"] ;
643 -> 645 ;
646 [label="X[0] <= 3.5\ngini = 0.417\nsamples = 248\nvalue = [0, 182, 52, 1, 0, 2, 0, 0, 0, 2, 3, 1, 0, 4\n0, 0, 1, 0, 0, 0, 0, 0, 0, 0, 0, 0, 0]"] ;
642 -> 646 ;
647 [label="gini = 0.41\nsamples = 176\nvalue = [0, 131, 33, 1, 0, 2, 0, 0, 0, 2, 2, 0, 0, 4\n0, 0, 1, 0, 0, 0, 0, 0, 0, 0, 0, 0, 0]"] ;
646 -> 647 ;
648 [label="gini = 0.428\nsamples = 72\nvalue = [0, 51, 19, 0, 0, 0, 0, 0, 0, 0, 1, 1, 0, 0\n0, 0, 0, 0, 0, 0, 0, 0, 0, 0, 0, 0, 0]"] ;
646 -> 648 ;
649 [label="gini = 0.358\nsamples = 51\nvalue = [0, 40, 8, 0, 0, 0, 0, 0, 0, 0, 1, 0, 0, 2\n0, 0, 0, 0, 0, 0, 0, 0, 0, 0, 0, 0, 0]"] ;
639 -> 649 ;
650 [label="X[2] <= 2.5\ngini = 0.274\nsamples = 58\nvalue = [0, 49, 6, 0, 0, 1, 0, 0, 0, 0, 0, 0, 0, 0\n0, 0, 2, 0, 0, 0, 0, 0, 0, 0, 0, 0, 0]"] ;
638 -> 650 ;
651 [label="X[0] <= 2.5\ngini = 0.117\nsamples = 16\nvalue = [0, 15, 1, 0, 0, 0, 0, 0, 0, 0, 0, 0, 0, 0\n0, 0, 0, 0, 0, 0, 0, 0, 0, 0, 0, 0, 0]"] ;
650 -> 651 ;
652 [label="gini = 0.153\nsamples = 12\nvalue = [0, 11, 1, 0, 0, 0, 0, 0, 0, 0, 0, 0, 0, 0\n0, 0, 0, 0, 0, 0, 0, 0, 0, 0, 0, 0, 0]"] ;
651 -> 652 ;
